{"learner":{"attributes":{},"feature_names":["pH","Temprature","Odor","Turbidity","Colour"],"feature_types":["float","int","int","int","int"],"gradient_booster":{"model":{"cats":{"enc":[],"feature_segments":[],"sorted_idx":[]},"gbtree_model_param":{"num_parallel_tree":"1","num_trees":"300"},"iteration_indptr":[0,3,6,9,12,15,18,21,24,27,30,33,36,39,42,45,48,51,54,57,60,63,66,69,72,75,78,81,84,87,90,93,96,99,102,105,108,111,114,117,120,123,126,129,132,135,138,141,144,147,150,153,156,159,162,165,168,171,174,177,180,183,186,189,192,195,198,201,204,207,210,213,216,219,222,225,228,231,234,237,240,243,246,249,252,255,258,261,264,267,270,273,276,279,282,285,288,291,294,297,300],"tree_info":[0,1,2,0,1,2,0,1,2,0,1,2,0,1,2,0,1,2,0,1,2,0,1,2,0,1,2,0,1,2,0,1,2,0,1,2,0,1,2,0,1,2,0,1,2,0,1,2,0,1,2,0,1,2,0,1,2,0,1,2,0,1,2,0,1,2,0,1,2,0,1,2,0,1,2,0,1,2,0,1,2,0,1,2,0,1,2,0,1,2,0,1,2,0,1,2,0,1,2,0,1,2,0,1,2,0,1,2,0,1,2,0,1,2,0,1,2,0,1,2,0,1,2,0,1,2,0,1,2,0,1,2,0,1,2,0,1,2,0,1,2,0,1,2,0,1,2,0,1,2,0,1,2,0,1,2,0,1,2,0,1,2,0,1,2,0,1,2,0,1,2,0,1,2,0,1,2,0,1,2,0,1,2,0,1,2,0,1,2,0,1,2,0,1,2,0,1,2,0,1,2,0,1,2,0,1,2,0,1,2,0,1,2,0,1,2,0,1,2,0,1,2,0,1,2,0,1,2,0,1,2,0,1,2,0,1,2,0,1,2,0,1,2,0,1,2,0,1,2,0,1,2,0,1,2,0,1,2,0,1,2,0,1,2,0,1,2,0,1,2,0,1,2,0,1,2,0,1,2,0,1,2,0,1,2,0,1,2,0,1,2,0,1,2,0,1,2,0,1,2],"trees":[{"base_weights":[-1.5188251E-1,-4.674083E-1,2.4479385E-1,-7.058391E-2,-3.3391145E-1,-6.967344E-2,5.388513E-1,2.4941957E-1,-6.4507045E-2,9.752804E-1,-6.931598E-2,5.6157093E-2,-6.545648E-2,7.149018E-3,1.5820524E-1],"categories":[],"categories_nodes":[],"categories_segments":[],"categories_sizes":[],"default_left":[0,0,0,0,0,0,0,0,0,0,0,0,0,0,0],"id":0,"left_children":[1,3,5,-1,7,-1,9,11,-1,13,-1,-1,-1,-1,-1],"loss_changes":[4.2159843E1,5.730694E0,4.1761642E1,0E0,2.2316536E1,0E0,6.222538E1,1.2552822E1,0E0,4.6469276E1,0E0,0E0,0E0,0E0,0E0],"parents":[2147483647,0,0,1,1,2,2,4,4,6,6,7,7,9,9],"right_children":[2,4,6,-1,8,-1,10,12,-1,14,-1,-1,-1,-1,-1],"split_conditions":[1E0,6.6E0,6.5E0,-7.058391E-2,6.8E0,-6.967344E-2,7.4E0,4.5E1,-6.4507045E-2,1E0,-6.931598E-2,5.6157093E-2,-6.545648E-2,7.149018E-3,1.5820524E-1],"split_indices":[2,0,0,0,0,0,0,1,0,3,0,0,0,0,0],"split_type":[0,0,0,0,0,0,0,0,0,0,0,0,0,0,0],"sum_hessian":[3.3492908E2,1.8644666E2,1.484824E2,6.538288E1,1.2106378E2,3.501148E1,1.1347093E2,4.2182503E1,7.888128E1,8.394318E1,2.9527752E1,3.1636877E1,1.0545626E1,3.4167828E1,4.9775352E1],"tree_param":{"num_deleted":"0","num_feature":"5","num_nodes":"15","size_leaf_vector":"1"}},{"base_weights":[1.0447866E-1,-2.2618528E-1,1.3803698E-1,1.3747832E-1,-6.211718E-1,-7.654104E-2,1.3147369E-1],"categories":[],"categories_nodes":[],"categories_segments":[],"categories_sizes":[],"default_left":[0,0,0,0,0,0,0],"id":1,"left_children":[1,3,-1,-1,5,-1,-1],"loss_changes":[1.5460493E2,1.8506296E2,0E0,0E0,6.644317E1,0E0,0E0],"parents":[2147483647,0,0,1,1,4,4],"right_children":[2,4,-1,-1,6,-1,-1],"split_conditions":[7.4E0,6.5E0,1.3803698E-1,1.3747832E-1,5E1,-7.654104E-2,1.3147369E-1],"split_indices":[0,0,0,0,1,0,0],"split_type":[0,0,0,0,0,0,0],"sum_hessian":[3.6471683E2,2.9030356E2,7.441325E1,5.6958294E1,2.3334526E2,2.1772768E2,1.5617597E1],"tree_param":{"num_deleted":"0","num_feature":"5","num_nodes":"7","size_leaf_vector":"1"}},{"base_weights":[3.5838883E-2,6.131562E-1,-5.4167837E-1,8.6043006E-1,-7.312072E-2,1.2676744E-1,-6.147635E-1,-7.001494E-2,1.000826E0,-2.9149738E-1,-7.5163536E-2,1.4211997E-1,7.486155E-2,1.576624E-2,-7.2987735E-2],"categories":[],"categories_nodes":[],"categories_segments":[],"categories_sizes":[],"default_left":[0,0,0,0,0,0,0,0,0,0,0,0,0,0,0],"id":2,"left_children":[1,3,5,7,-1,-1,9,-1,11,13,-1,-1,-1,-1,-1],"loss_changes":[1.195241E2,6.021531E1,2.4482277E1,3.397278E1,0E0,0E0,7.4337234E0,0E0,1.3751236E1,1.0567078E1,0E0,0E0,0E0,0E0,0E0],"parents":[2147483647,0,0,1,1,2,2,3,3,6,6,8,8,9,9],"right_children":[2,4,6,8,-1,-1,10,-1,12,14,-1,-1,-1,-1,-1],"split_conditions":[1E0,5E1,2.45E2,5.5E0,-7.312072E-2,1.2676744E-1,1E0,-7.001494E-2,6.6E0,7.4E0,-7.5163536E-2,1.4211997E-1,7.486155E-2,1.576624E-2,-7.2987735E-2],"split_indices":[3,1,4,0,0,0,2,0,0,0,0,0,0,0,0],"split_type":[0,0,0,0,0,0,0,0,0,0,0,0,0,0,0],"sum_hessian":[3.564929E2,1.7824644E2,1.7824644E2,1.5085846E2,2.7387993E1,6.285769E0,1.7196068E2,1.2122554E1,1.387359E2,5.2082085E1,1.1987859E2,5.028615E1,8.8449745E1,2.6041042E1,2.6041042E1],"tree_param":{"num_deleted":"0","num_feature":"5","num_nodes":"15","size_leaf_vector":"1"}},{"base_weights":[-1.4251697E-1,-4.4599572E-1,2.2461636E-1,-6.828412E-2,-3.1673717E-1,-6.740975E-2,4.8644465E-1,2.3649219E-1,-6.2485673E-2,8.599411E-1,-6.7048125E-2,5.206291E-2,-6.3528605E-2,6.929143E-3,1.3510703E-1],"categories":[],"categories_nodes":[],"categories_segments":[],"categories_sizes":[],"default_left":[0,0,0,0,0,0,0,0,0,0,0,0,0,0,0],"id":3,"left_children":[1,3,5,-1,7,-1,9,11,-1,13,-1,-1,-1,-1,-1],"loss_changes":[3.7074787E1,5.355938E0,3.582277E1,0E0,2.0537636E1,0E0,5.1302998E1,1.1109411E1,0E0,3.453656E1,0E0,0E0,0E0,0E0,0E0],"parents":[2147483647,0,0,1,1,2,2,4,4,6,6,7,7,9,9],"right_children":[2,4,6,-1,8,-1,10,12,-1,14,-1,-1,-1,-1,-1],"split_conditions":[1E0,6.6E0,6.5E0,-6.828412E-2,6.8E0,-6.740975E-2,7.4E0,4.5E1,-6.2485673E-2,1E0,-6.7048125E-2,5.206291E-2,-6.3528605E-2,6.929143E-3,1.3510703E-1],"split_indices":[2,0,0,0,0,0,0,1,0,3,0,0,0,0,0],"split_type":[0,0,0,0,0,0,0,0,0,0,0,0,0,0,0],"sum_hessian":[3.3085745E2,1.8101364E2,1.498438E2,6.2397503E1,1.1861614E2,3.3450813E1,1.1639298E2,4.251422E1,7.610192E1,8.8181564E1,2.8211418E1,3.2367535E1,1.01466875E1,3.422505E1,5.3956512E1],"tree_param":{"num_deleted":"0","num_feature":"5","num_nodes":"15","size_leaf_vector":"1"}},{"base_weights":[9.662028E-2,-2.1196403E-1,1.2142183E-1,1.212755E-1,-5.920719E-1,-7.345935E-2,1.17840506E-1],"categories":[],"categories_nodes":[],"categories_segments":[],"categories_sizes":[],"default_left":[0,0,0,0,0,0,0],"id":4,"left_children":[1,3,-1,-1,5,-1,-1],"loss_changes":[1.2621374E2,1.5617041E2,0E0,0E0,5.8212807E1,0E0,0E0],"parents":[2147483647,0,0,1,1,4,4],"right_children":[2,4,-1,-1,6,-1,-1],"split_conditions":[7.4E0,6.5E0,1.2142183E-1,1.212755E-1,5E1,-7.345935E-2,1.17840506E-1],"split_indices":[0,0,0,0,1,0,0],"split_type":[0,0,0,0,0,0,0],"sum_hessian":[3.642252E2,2.860525E2,7.8172714E1,5.97831E1,2.2626938E2,2.0995343E2,1.6315952E1],"tree_param":{"num_deleted":"0","num_feature":"5","num_nodes":"7","size_leaf_vector":"1"}},{"base_weights":[3.3679448E-2,5.528776E-1,-5.1483727E-1,7.663293E-1,-7.010917E-2,1.12849474E-1,-5.867229E-1,-6.716195E-2,8.857719E-1,-2.7299753E-1,-7.227561E-2,1.23933814E-1,6.6854805E-2,1.4374787E-2,-6.999426E-2],"categories":[],"categories_nodes":[],"categories_segments":[],"categories_sizes":[],"default_left":[0,0,0,0,0,0,0,0,0,0,0,0,0,0,0],"id":5,"left_children":[1,3,5,7,-1,-1,9,-1,11,13,-1,-1,-1,-1,-1],"loss_changes":[1.0181563E2,4.9688984E1,2.120287E1,2.7628693E1,0E0,0E0,6.9404335E0,0E0,1.0366211E1,9.387214E0,0E0,0E0,0E0,0E0,0E0],"parents":[2147483647,0,0,1,1,2,2,3,3,6,6,8,8,9,9],"right_children":[2,4,6,8,-1,-1,10,-1,12,14,-1,-1,-1,-1,-1],"split_conditions":[1E0,5E1,2.45E2,5.5E0,-7.010917E-2,1.12849474E-1,1E0,-6.716195E-2,6.6E0,7.4E0,-7.227561E-2,1.23933814E-1,6.6854805E-2,1.4374787E-2,-6.999426E-2],"split_indices":[3,1,4,0,0,0,2,0,0,0,0,0,0,0,0],"split_type":[0,0,0,0,0,0,0,0,0,0,0,0,0,0,0],"sum_hessian":[3.555132E2,1.8263358E2,1.7287964E2,1.5639992E2,2.6233648E1,6.6294537E0,1.6625018E2,1.1640383E1,1.4475954E2,5.1193184E1,1.1505701E2,5.3299984E1,9.145956E1,2.6241705E1,2.4951479E1],"tree_param":{"num_deleted":"0","num_feature":"5","num_nodes":"15","size_leaf_vector":"1"}},{"base_weights":[-1.3393003E-1,-4.2573363E-1,2.0822856E-1,-6.623499E-2,-3.0009595E-1,-6.536287E-2,4.444095E-1,2.2569153E-1,-6.059354E-1,7.705774E-1,-6.4998426E-2,4.856373E-2,-6.1828084E-2,-5.201436E-2,-6.667491E-2,6.8520308E-3,1.18557826E-1],"categories":[],"categories_nodes":[],"categories_segments":[],"categories_sizes":[],"default_left":[0,0,0,0,0,0,0,0,0,0,0,0,0,0,0,0,0],"id":6,"left_children":[1,3,5,-1,7,-1,9,11,13,15,-1,-1,-1,-1,-1,-1,-1],"loss_changes":[3.2619736E1,5.038677E0,3.0954445E1,0E0,1.8935822E1,0E0,4.291999E1,9.89221E0,4.0233612E-2,2.6725685E1,0E0,0E0,0E0,0E0,0E0,0E0,0E0],"parents":[2147483647,0,0,1,1,2,2,4,4,6,6,7,7,8,8,9,9],"right_children":[2,4,6,-1,8,-1,10,12,14,16,-1,-1,-1,-1,-1,-1,-1],"split_conditions":[1E0,6.6E0,6.5E0,-6.623499E-2,6.8E0,-6.536287E-2,7.4E0,4.5E1,2.53E2,1E0,-6.4998426E-2,4.856373E-2,-6.1828084E-2,-5.201436E-2,-6.667491E-2,6.8520308E-3,1.18557826E-1],"split_indices":[2,0,0,0,0,0,0,1,4,3,0,0,0,0,0,0,0],"split_type":[0,0,0,0,0,0,0,0,0,0,0,0,0,0,0,0,0],"sum_hessian":[3.2482208E2,1.7517935E2,1.4964272E2,5.9274487E1,1.1590486E2,3.1807009E1,1.1783571E2,4.2721596E1,7.3183266E1,9.100801E1,2.6827703E1,3.2986305E1,9.73529E0,3.4319996E1,3.886327E1,3.4243454E1,5.6764553E1],"tree_param":{"num_deleted":"0","num_feature":"5","num_nodes":"17","size_leaf_vector":"1"}},{"base_weights":[8.964077E-2,-2.0047757E-1,1.0903179E-1,1.0914319E-1,-5.671251E-1,-7.080425E-2,1.0730962E-1],"categories":[],"categories_nodes":[],"categories_segments":[],"categories_sizes":[],"default_left":[0,0,0,0,0,0,0],"id":7,"left_children":[1,3,-1,-1,5,-1,-1],"loss_changes":[1.0500779E2,1.3356454E2,0E0,0E0,5.1443344E1,0E0,0E0],"parents":[2147483647,0,0,1,1,4,4],"right_children":[2,4,-1,-1,6,-1,-1],"split_conditions":[7.4E0,6.5E0,1.0903179E-1,1.0914319E-1,5E1,-7.080425E-2,1.0730962E-1],"split_indices":[0,0,0,0,1,0,0],"split_type":[0,0,0,0,0,0,0],"sum_hessian":[3.5995035E2,2.7966806E2,8.028228E1,6.1387592E1,2.1828047E2,2.0153426E2,1.6746218E1],"tree_param":{"num_deleted":"0","num_feature":"5","num_nodes":"7","size_leaf_vector":"1"}},{"base_weights":[3.197381E-2,5.0361824E-1,-4.9080774E-1,6.907558E-1,-6.748329E-2,1.02037095E-1,-5.614614E-1,-6.461879E-2,7.9426724E-1,-2.5597635E-1,-6.974034E-2,1.1049503E-1,6.0186137E-2,1.31559E-2,-6.7381494E-2],"categories":[],"categories_nodes":[],"categories_segments":[],"categories_sizes":[],"default_left":[0,0,0,0,0,0,0,0,0,0,0,0,0,0,0],"id":8,"left_children":[1,3,5,7,-1,-1,9,-1,11,13,-1,-1,-1,-1,-1],"loss_changes":[8.724479E1,4.148151E1,1.849453E1,2.2792595E1,0E0,0E0,6.5075264E0,0E0,8.293831E0,8.373081E0,0E0,0E0,0E0,0E0,0E0],"parents":[2147483647,0,0,1,1,2,2,3,3,6,6,8,8,9,9],"right_children":[2,4,6,8,-1,-1,10,-1,12,14,-1,-1,-1,-1,-1],"split_conditions":[1E0,5E1,2.45E2,5.5E0,-6.748329E-2,1.02037095E-1,1E0,-6.461879E-2,6.6E0,7.4E0,-6.974034E-2,1.1049503E-1,6.0186137E-2,1.31559E-2,-6.7381494E-2],"split_indices":[3,1,4,0,0,0,2,0,0,0,0,0,0,0,0],"split_type":[0,0,0,0,0,0,0,0,0,0,0,0,0,0,0],"sum_hessian":[3.5183554E2,1.8498338E2,1.6685214E2,1.5999077E2,2.4992615E1,6.85218E0,1.5999997E2,1.1120238E1,1.4887053E2,5.016146E1,1.098385E2,5.512149E1,9.374904E1,2.6379889E1,2.3781572E1],"tree_param":{"num_deleted":"0","num_feature":"5","num_nodes":"15","size_leaf_vector":"1"}},{"base_weights":[-1.2608606E-1,-4.0656403E-1,1.9469656E-1,-6.4404875E-2,-2.8414416E-1,-6.35125E-2,4.0997115E-1,2.1652037E-1,-5.8836293E-1,6.99298E-1,-6.314484E-2,4.553075E-2,-6.0312804E-2,-5.002317E-2,-6.5131746E-2,9.930026E-3,1.104885E-1],"categories":[],"categories_nodes":[],"categories_segments":[],"categories_sizes":[],"default_left":[0,0,0,0,0,0,0,0,0,0,0,0,0,0,0,0,0],"id":9,"left_children":[1,3,5,-1,7,-1,9,11,13,15,-1,-1,-1,-1,-1,-1,-1],"loss_changes":[2.871136E1,4.762476E0,2.6900267E1,0E0,1.7496243E1,0E0,3.6302464E1,8.85355E0,6.924057E-2,2.267154E1,0E0,0E0,0E0,0E0,0E0,0E0,0E0],"parents":[2147483647,0,0,1,1,2,2,4,4,6,6,7,7,8,8,9,9],"right_children":[2,4,6,-1,8,-1,10,12,14,16,-1,-1,-1,-1,-1,-1,-1],"split_conditions":[1E0,6.6E0,6.5E0,-6.4404875E-2,6.8E0,-6.35125E-2,7.4E0,4.5E1,2.53E2,2.48E2,-6.314484E-2,4.553075E-2,-6.0312804E-2,-5.002317E-2,-6.5131746E-2,9.930026E-3,1.104885E-1],"split_indices":[2,0,0,0,0,0,0,1,4,4,0,0,0,0,0,0,0],"split_type":[0,0,0,0,0,0,0,0,0,0,0,0,0,0,0,0,0],"sum_hessian":[3.1723297E2,1.6910645E2,1.4812653E2,5.6071407E1,1.13035034E2,3.0110176E1,1.1801635E2,4.283239E1,7.0202644E1,9.2614685E1,2.540167E1,3.3513462E1,9.318927E0,3.297969E1,3.7222954E1,3.7856773E1,5.4757908E1],"tree_param":{"num_deleted":"0","num_feature":"5","num_nodes":"17","size_leaf_vector":"1"}},{"base_weights":[8.3394304E-2,-1.9113562E-1,9.950602E-2,9.976979E-2,-5.4556125E-1,-6.849652E-2,9.892741E-2],"categories":[],"categories_nodes":[],"categories_segments":[],"categories_sizes":[],"default_left":[0,0,0,0,0,0,0],"id":10,"left_children":[1,3,-1,-1,5,-1,-1],"loss_changes":[8.868652E1,1.1540299E2,0E0,0E0,4.574596E1,0E0,0E0],"parents":[2147483647,0,0,1,1,4,4],"right_children":[2,4,-1,-1,6,-1,-1],"split_conditions":[7.4E0,6.5E0,9.950602E-2,9.976979E-2,5E1,-6.849652E-2,9.892741E-2],"split_indices":[0,0,0,0,1,0,0],"split_type":[0,0,0,0,0,0,0],"sum_hessian":[3.5258987E2,2.7159485E2,8.0995E1,6.1957783E1,2.0963708E2,1.9268947E2,1.6947609E1],"tree_param":{"num_deleted":"0","num_feature":"5","num_nodes":"7","size_leaf_vector":"1"}},{"base_weights":[3.0659674E-2,4.6250704E-1,-4.690829E-1,6.2858677E-1,-6.5180115E-2,9.361667E-2,-5.385697E-1,-6.2338557E-2,7.1957403E-1,-2.4028966E-1,-6.7508E-2,1.0020267E-1,5.45367E-2,1.20414505E-2,-6.5071486E-2],"categories":[],"categories_nodes":[],"categories_segments":[],"categories_sizes":[],"default_left":[0,0,0,0,0,0,0,0,0,0,0,0,0,0,0],"id":11,"left_children":[1,3,5,7,-1,-1,9,-1,11,13,-1,-1,-1,-1,-1],"loss_changes":[7.509302E1,3.494659E1,1.6257294E1,1.900779E1,0E0,0E0,6.123127E0,0E0,6.9499283E0,7.4830165E0,0E0,0E0,0E0,0E0,0E0],"parents":[2147483647,0,0,1,1,2,2,3,3,6,6,8,8,9,9],"right_children":[2,4,6,8,-1,-1,10,-1,12,14,-1,-1,-1,-1,-1],"split_conditions":[1E0,5E1,2.45E2,5.5E0,-6.5180115E-2,9.361667E-2,1E0,-6.2338557E-2,6.6E0,7.4E0,-6.7508E-2,1.0020267E-1,5.45367E-2,1.20414505E-2,-6.5071486E-2],"split_indices":[3,1,4,0,0,0,2,0,0,0,0,0,0,0,0],"split_type":[0,0,0,0,0,0,0,0,0,0,0,0,0,0,0],"sum_hessian":[3.459496E2,1.8562134E2,1.6032826E2,1.6192368E2,2.3697674E1,6.9666786E0,1.5336157E2,1.0574103E1,1.5134956E2,4.901727E1,1.0434431E2,5.5924206E1,9.542536E1,2.6464994E1,2.2552277E1],"tree_param":{"num_deleted":"0","num_feature":"5","num_nodes":"15","size_leaf_vector":"1"}},{"base_weights":[-1.18702054E-1,-3.8825446E-1,1.8304013E-1,-6.2766545E-2,-2.6868007E-1,-6.1838347E-2,3.8040832E-1,2.0860006E-1,-5.718576E-1,6.393078E-1,-6.1465878E-2,4.2869177E-2,-5.895065E-2,-4.809832E-2,-6.373177E-2,8.834204E-3,1.00751214E-1],"categories":[],"categories_nodes":[],"categories_segments":[],"categories_sizes":[],"default_left":[0,0,0,0,0,0,0,0,0,0,0,0,0,0,0,0,0],"id":12,"left_children":[1,3,5,-1,7,-1,9,11,13,15,-1,-1,-1,-1,-1,-1,-1],"loss_changes":[2.525858E1,4.5228844E0,2.3454252E1,0E0,1.6187304E1,0E0,3.0896614E1,7.958541E0,9.900665E-2,1.9071552E1,0E0,0E0,0E0,0E0,0E0,0E0,0E0],"parents":[2147483647,0,0,1,1,2,2,4,4,6,6,7,7,8,8,9,9],"right_children":[2,4,6,-1,8,-1,10,12,14,16,-1,-1,-1,-1,-1,-1,-1],"split_conditions":[1E0,6.6E0,6.5E0,-6.2766545E-2,6.8E0,-6.1838347E-2,7.4E0,4.5E1,2.53E2,2.48E2,-6.1465878E-2,4.2869177E-2,-5.895065E-2,-4.809832E-2,-6.373177E-2,8.834204E-3,1.00751214E-1],"split_indices":[2,0,0,0,0,0,0,1,4,4,0,0,0,0,0,0,0],"split_type":[0,0,0,0,0,0,0,0,0,0,0,0,0,0,0,0,0],"sum_hessian":[3.0867493E2,1.6288222E2,1.457927E2,5.283906E1,1.1004316E2,2.8388126E1,1.1740457E2,4.2868683E1,6.717448E1,9.344842E1,2.3956158E1,3.3965088E1,8.903596E0,3.1622501E1,3.555198E1,3.7930584E1,5.551783E1],"tree_param":{"num_deleted":"0","num_feature":"5","num_nodes":"17","size_leaf_vector":"1"}},{"base_weights":[7.753299E-2,-1.8366571E-1,9.197913E-2,9.234992E-2,-5.269124E-1,-6.649079E-2,9.216895E-2],"categories":[],"categories_nodes":[],"categories_segments":[],"categories_sizes":[],"default_left":[0,0,0,0,0,0,0],"id":13,"left_children":[1,3,-1,-1,5,-1,-1],"loss_changes":[7.581212E1,1.005417E2,0E0,0E0,4.0915096E1,0E0,0E0],"parents":[2147483647,0,0,1,1,4,4],"right_children":[2,4,-1,-1,6,-1,-1],"split_conditions":[7.4E0,6.5E0,9.197913E-2,9.234992E-2,5E1,-6.649079E-2,9.216895E-2],"split_indices":[0,0,0,0,1,0,0],"split_type":[0,0,0,0,0,0,0],"sum_hessian":[3.4283774E2,2.6228165E2,8.055609E1,6.1670116E1,2.0061153E2,1.8365714E2,1.6954391E1],"tree_param":{"num_deleted":"0","num_feature":"5","num_nodes":"7","size_leaf_vector":"1"}},{"base_weights":[2.9755984E-2,4.2903376E-1,-4.5004663E-1,5.780842E-1,-6.314089E-2,8.677086E-2,-5.1833117E-1,-6.0281724E-2,6.590981E-1,-2.2575384E-1,-6.560718E-2,9.212642E-2,4.99442E-2,1.1048987E-2,-6.3028835E-2],"categories":[],"categories_nodes":[],"categories_segments":[],"categories_sizes":[],"default_left":[0,0,0,0,0,0,0,0,0,0,0,0,0,0,0],"id":14,"left_children":[1,3,5,7,-1,-1,9,-1,11,13,-1,-1,-1,-1,-1],"loss_changes":[6.522061E1,2.9728813E1,1.4366453E1,1.6030186E1,0E0,0E0,5.8028297E0,0E0,5.960335E0,6.7063456E0,0E0,0E0,0E0,0E0,0E0],"parents":[2147483647,0,0,1,1,2,2,3,3,6,6,8,8,9,9],"right_children":[2,4,6,8,-1,-1,10,-1,12,14,-1,-1,-1,-1,-1],"split_conditions":[1E0,5E1,2.45E2,5.5E0,-6.314089E-2,8.677086E-2,1E0,-6.0281724E-2,6.6E0,7.4E0,-6.560718E-2,9.212642E-2,4.99442E-2,1.1048987E-2,-6.3028835E-2],"split_indices":[3,1,4,0,0,0,2,0,0,0,0,0,0,0,0],"split_type":[0,0,0,0,0,0,0,0,0,0,0,0,0,0,0],"sum_hessian":[3.3843726E2,1.8477702E2,1.5366025E2,1.6240506E2,2.2371958E1,6.9934487E0,1.466668E2,1.001277E1,1.5239229E2,4.779134E1,9.887546E1,5.587365E1,9.651865E1,2.6495502E1,2.1295837E1],"tree_param":{"num_deleted":"0","num_feature":"5","num_nodes":"15","size_leaf_vector":"1"}},{"base_weights":[-1.1177097E-1,-3.7067205E-1,1.7310207E-1,-6.1296023E-2,-2.5365728E-1,-6.032115E-2,3.552514E-1,2.0170647E-1,-5.5629426E-1,5.891424E-1,-5.9941668E-2,4.0516168E-2,-5.7715643E-2,-4.623085E-2,-6.246059E-2,7.872867E-3,9.305302E-2],"categories":[],"categories_nodes":[],"categories_segments":[],"categories_sizes":[],"default_left":[0,0,0,0,0,0,0,0,0,0,0,0,0,0,0,0,0],"id":15,"left_children":[1,3,5,-1,7,-1,9,11,13,15,-1,-1,-1,-1,-1,-1,-1],"loss_changes":[2.220721E1,4.3127537E0,2.052375E1,0E0,1.4993172E1,0E0,2.6469019E1,7.181899E0,1.2942886E-1,1.6384312E1,0E0,0E0,0E0,0E0,0E0,0E0,0E0],"parents":[2147483647,0,0,1,1,2,2,4,4,6,6,7,7,8,8,9,9],"right_children":[2,4,6,-1,8,-1,10,12,14,16,-1,-1,-1,-1,-1,-1,-1],"split_conditions":[1E0,6.6E0,6.5E0,-6.1296023E-2,6.8E0,-6.032115E-2,7.4E0,4.5E1,2.53E2,2.48E2,-5.9941668E-2,4.0516168E-2,-5.7715643E-2,-4.623085E-2,-6.246059E-2,7.872867E-3,9.305302E-2],"split_indices":[2,0,0,0,0,0,0,1,4,4,0,0,0,0,0,0,0],"split_type":[0,0,0,0,0,0,0,0,0,0,0,0,0,0,0,0,0],"sum_hessian":[2.9922867E2,1.566025E2,1.4262617E2,4.9620693E1,1.06981804E2,2.6665823E1,1.1596036E2,4.284637E1,6.413543E1,9.344859E1,2.251176E1,3.435257E1,8.493802E0,3.0264297E1,3.387113E1,3.7945843E1,5.5502754E1],"tree_param":{"num_deleted":"0","num_feature":"5","num_nodes":"17","size_leaf_vector":"1"}},{"base_weights":[7.2075956E-2,-1.7761403E-1,8.591123E-2,8.6360455E-2,-5.1060855E-1,-6.473055E-2,8.66137E-2],"categories":[],"categories_nodes":[],"categories_segments":[],"categories_sizes":[],"default_left":[0,0,0,0,0,0,0],"id":16,"left_children":[1,3,-1,-1,5,-1,-1],"loss_changes":[6.544004E1,8.817499E1,0E0,0E0,3.6760807E1,0E0,0E0],"parents":[2147483647,0,0,1,1,4,4],"right_children":[2,4,-1,-1,6,-1,-1],"split_conditions":[7.4E0,6.5E0,8.591123E-2,8.6360455E-2,5E1,-6.473055E-2,8.66137E-2],"split_indices":[0,0,0,0,1,0,0],"split_type":[0,0,0,0,0,0,0],"sum_hessian":[3.3122614E2,2.5203993E2,7.918621E1,6.0687313E1,1.9135262E2,1.7455127E2,1.680134E1],"tree_param":{"num_deleted":"0","num_feature":"5","num_nodes":"7","size_leaf_vector":"1"}},{"base_weights":[2.9071197E-2,4.0013117E-1,-4.326519E-1,5.348759E-1,-6.1325368E-2,8.111247E-2,-4.9975777E-1,-5.8414605E-2,6.076177E-1,-2.1223697E-1,-6.392599E-2,8.5626535E-2,4.5932148E-2,1.0159338E-2,-6.1210066E-2],"categories":[],"categories_nodes":[],"categories_segments":[],"categories_sizes":[],"default_left":[0,0,0,0,0,0,0,0,0,0,0,0,0,0,0],"id":17,"left_children":[1,3,5,7,-1,-1,9,-1,11,13,-1,-1,-1,-1,-1],"loss_changes":[5.681617E1,2.542873E1,1.2740671E1,1.3605457E1,0E0,0E0,5.513542E0,0E0,5.260803E0,6.024018E0,0E0,0E0,0E0,0E0,0E0],"parents":[2147483647,0,0,1,1,2,2,3,3,6,6,8,8,9,9],"right_children":[2,4,6,8,-1,-1,10,-1,12,14,-1,-1,-1,-1,-1],"split_conditions":[1E0,5E1,2.45E2,5.5E0,-6.1325368E-2,8.111247E-2,1E0,-5.8414605E-2,6.6E0,7.4E0,-6.392599E-2,8.5626535E-2,4.5932148E-2,1.0159338E-2,-6.1210066E-2],"split_indices":[3,1,4,0,0,0,2,0,0,0,0,0,0,0,0],"split_type":[0,0,0,0,0,0,0,0,0,0,0,0,0,0,0],"sum_hessian":[3.2961377E2,1.8282298E2,1.4679079E2,1.617836E2,2.1039377E1,6.9468465E0,1.3984393E2,9.445678E0,1.5233792E2,4.6508663E1,9.3335266E1,5.5129124E1,9.72088E1,2.6475485E1,2.0033178E1],"tree_param":{"num_deleted":"0","num_feature":"5","num_nodes":"15","size_leaf_vector":"1"}},{"base_weights":[-1.0522818E-1,-3.5371938E-1,1.6451387E-1,-5.9972435E-2,-2.390624E-1,-5.894233E-2,3.3351985E-1,1.9560978E-1,-5.415589E-1,5.464342E-1,-5.8553364E-2,3.8415506E-2,-5.6586873E-2,-4.4412848E-2,-6.1305203E-2,7.022003E-3,8.6838864E-2],"categories":[],"categories_nodes":[],"categories_segments":[],"categories_sizes":[],"default_left":[0,0,0,0,0,0,0,0,0,0,0,0,0,0,0,0,0],"id":18,"left_children":[1,3,5,-1,7,-1,9,11,13,15,-1,-1,-1,-1,-1,-1,-1],"loss_changes":[1.9507763E1,4.1256657E0,1.8012108E1,0E0,1.3898684E1,0E0,2.2794397E1,6.5029573E0,1.6042137E-1,1.431538E1,0E0,0E0,0E0,0E0,0E0,0E0,0E0],"parents":[2147483647,0,0,1,1,2,2,4,4,6,6,7,7,8,8,9,9],"right_children":[2,4,6,-1,8,-1,10,12,14,16,-1,-1,-1,-1,-1,-1,-1],"split_conditions":[1E0,6.6E0,6.5E0,-5.9972435E-2,6.8E0,-5.894233E-2,7.4E0,4.5E1,2.53E2,2.48E2,-5.8553364E-2,3.8415506E-2,-5.6586873E-2,-4.4412848E-2,-6.1305203E-2,7.022003E-3,8.6838864E-2],"split_indices":[2,0,0,0,0,0,0,1,4,4,0,0,0,0,0,0,0],"split_type":[0,0,0,0,0,0,0,0,0,0,0,0,0,0,0,0,0],"sum_hessian":[2.8916855E2,1.5035109E2,1.3881746E2,4.6452744E1,1.03898346E2,2.4964228E1,1.13853226E2,4.277959E1,6.1118755E1,9.2767494E1,2.108573E1,3.4686565E1,8.093025E0,2.8919527E1,3.219923E1,3.7910633E1,5.4856865E1],"tree_param":{"num_deleted":"0","num_feature":"5","num_nodes":"17","size_leaf_vector":"1"}},{"base_weights":[6.6949025E-2,-1.7271459E-1,8.09392E-2,8.144823E-2,-4.9625468E-1,-6.317552E-2,8.19818E-2],"categories":[],"categories_nodes":[],"categories_segments":[],"categories_sizes":[],"default_left":[0,0,0,0,0,0,0],"id":19,"left_children":[1,3,-1,-1,5,-1,-1],"loss_changes":[5.694714E1,7.775344E1,0E0,0E0,3.3154938E1,0E0,0E0],"parents":[2147483647,0,0,1,1,4,4],"right_children":[2,4,-1,-1,6,-1,-1],"split_conditions":[7.4E0,6.5E0,8.09392E-2,8.144823E-2,5E1,-6.317552E-2,8.19818E-2],"split_indices":[0,0,0,0,1,0,0],"split_type":[0,0,0,0,0,0,0],"sum_hessian":[3.1825616E2,2.4117216E2,7.7083984E1,5.9155975E1,1.8201619E2,1.654969E2,1.65193E1],"tree_param":{"num_deleted":"0","num_feature":"5","num_nodes":"7","size_leaf_vector":"1"}},{"base_weights":[2.8551226E-2,3.748169E-1,-4.1665292E-1,4.9733725E-1,-5.969839E-2,7.636795E-2,-4.8260784E-1,-5.6708302E-2,5.630884E-1,-1.9963527E-1,-6.2435836E-2,8.029972E-2,4.239092E-2,9.356856E-3,-5.957961E-2],"categories":[],"categories_nodes":[],"categories_segments":[],"categories_sizes":[],"default_left":[0,0,0,0,0,0,0,0,0,0,0,0,0,0,0],"id":20,"left_children":[1,3,5,7,-1,-1,9,-1,11,13,-1,-1,-1,-1,-1],"loss_changes":[4.961458E1,2.184688E1,1.13323555E1,1.1606411E1,0E0,0E0,5.250061E0,0E0,4.748066E0,5.4210296E0,0E0,0E0,0E0,0E0,0E0],"parents":[2147483647,0,0,1,1,2,2,3,3,6,6,8,8,9,9],"right_children":[2,4,6,8,-1,-1,10,-1,12,14,-1,-1,-1,-1,-1],"split_conditions":[1E0,5E1,2.45E2,5.5E0,-5.969839E-2,7.636795E-2,1E0,-5.6708302E-2,6.6E0,7.4E0,-6.2435836E-2,8.029972E-2,4.239092E-2,9.356856E-3,-5.957961E-2],"split_indices":[3,1,4,0,0,0,2,0,0,0,0,0,0,0,0],"split_type":[0,0,0,0,0,0,0,0,0,0,0,0,0,0,0],"sum_hessian":[3.1982745E2,1.7999283E2,1.3983461E2,1.6027438E2,1.9718454E1,6.8403616E0,1.3299425E2,8.880862E0,1.5139351E2,4.519036E1,8.7803894E1,5.3831867E1,9.7561646E1,2.6408728E1,1.8781633E1],"tree_param":{"num_deleted":"0","num_feature":"5","num_nodes":"15","size_leaf_vector":"1"}},{"base_weights":[-9.9018544E-2,-3.373143E-1,1.5699403E-1,-5.877741E-2,-2.2488478E-1,-5.768478E-2,3.144843E-1,1.9013038E-1,-5.275408E-1,5.094891E-1,-5.7283647E-2,1.0417586E-1,2.6840528E-3,-4.2636495E-2,-6.025317E-2,6.2624747E-3,8.1734635E-2],"categories":[],"categories_nodes":[],"categories_segments":[],"categories_sizes":[],"default_left":[0,0,0,0,0,0,0,0,0,0,0,0,0,0,0,0,0],"id":21,"left_children":[1,3,5,-1,7,-1,9,11,13,15,-1,-1,-1,-1,-1,-1,-1],"loss_changes":[1.7118484E1,3.956421E0,1.5845633E1,0E0,1.2891077E1,0E0,1.9712029E1,6.0462165E0,1.9190598E-1,1.2679905E1,0E0,0E0,0E0,0E0,0E0,0E0,0E0],"parents":[2147483647,0,0,1,1,2,2,4,4,6,6,7,7,8,8,9,9],"right_children":[2,4,6,-1,8,-1,10,12,14,16,-1,-1,-1,-1,-1,-1,-1],"split_conditions":[1E0,6.6E0,6.5E0,-5.877741E-2,6.8E0,-5.768478E-2,7.4E0,3.8E1,2.53E2,2.48E2,-5.7283647E-2,1.0417586E-1,2.6840528E-3,-4.2636495E-2,-6.025317E-2,6.2624747E-3,8.1734635E-2],"split_indices":[2,0,0,0,0,0,0,1,4,4,0,0,0,0,0,0,0],"split_type":[0,0,0,0,0,0,0,0,0,0,0,0,0,0,0,0,0],"sum_hessian":[2.78732E2,1.4419664E2,1.3453537E2,4.3364777E1,1.00831856E2,2.3300692E1,1.1123468E2,4.2679565E1,5.815229E1,9.154239E1,1.9692287E1,6.0011463E0,3.667842E1,2.7600252E1,3.0552038E1,3.7831783E1,5.3710606E1],"tree_param":{"num_deleted":"0","num_feature":"5","num_nodes":"17","size_leaf_vector":"1"}},{"base_weights":[6.2092274E-2,-1.6876152E-1,7.680942E-2,7.73655E-2,-4.8353478E-1,-6.179337E-2,7.807144E-2],"categories":[],"categories_nodes":[],"categories_segments":[],"categories_sizes":[],"default_left":[0,0,0,0,0,0,0],"id":22,"left_children":[1,3,-1,-1,5,-1,-1],"loss_changes":[4.989787E1,6.887997E1,0E0,0E0,3.0001232E1,0E0,0E0],"parents":[2147483647,0,0,1,1,4,4],"right_children":[2,4,-1,-1,6,-1,-1],"split_conditions":[7.4E0,6.5E0,7.680942E-2,7.73655E-2,5E1,-6.179337E-2,7.807144E-2],"split_indices":[0,0,0,0,1,0,0],"split_type":[0,0,0,0,0,0,0],"sum_hessian":[3.0435806E2,2.2993361E2,7.442445E1,5.720542E1,1.727282E2,1.565925E2,1.6135698E1],"tree_param":{"num_deleted":"0","num_feature":"5","num_nodes":"7","size_leaf_vector":"1"}},{"base_weights":[2.8153501E-2,3.5235813E-1,-4.0184265E-1,4.642779E-1,-5.8230717E-2,7.233885E-2,-4.6667662E-1,-5.513793E-2,5.2402693E-1,-1.878657E-1,-6.1111998E-2,7.586665E-2,3.9237697E-2,8.628695E-3,-5.810797E-2],"categories":[],"categories_nodes":[],"categories_segments":[],"categories_sizes":[],"default_left":[0,0,0,0,0,0,0,0,0,0,0,0,0,0,0],"id":23,"left_children":[1,3,5,7,-1,-1,9,-1,11,13,-1,-1,-1,-1,-1],"loss_changes":[4.3410606E1,1.8837254E1,1.0105192E1,9.941845E0,0E0,0E0,5.0079327E0,0E0,4.35878E0,4.8854303E0,0E0,0E0,0E0,0E0,0E0],"parents":[2147483647,0,0,1,1,2,2,3,3,6,6,8,8,9,9],"right_children":[2,4,6,8,-1,-1,10,-1,12,14,-1,-1,-1,-1,-1],"split_conditions":[1E0,5E1,2.45E2,5.5E0,-5.8230717E-2,7.233885E-2,1E0,-5.513793E-2,6.6E0,7.4E0,-6.1111998E-2,7.586665E-2,3.9237697E-2,8.628695E-3,-5.810797E-2],"split_indices":[3,1,4,0,0,0,2,0,0,0,0,0,0,0,0],"split_type":[0,0,0,0,0,0,0,0,0,0,0,0,0,0,0],"sum_hessian":[3.0937967E2,1.7649107E2,1.328886E2,1.5806691E2,1.8424164E1,6.686306E0,1.26202286E2,8.324963E0,1.4974194E2,4.3854E1,8.234828E1,5.2107716E1,9.763423E1,2.6298788E1,1.7555214E1],"tree_param":{"num_deleted":"0","num_feature":"5","num_nodes":"15","size_leaf_vector":"1"}},{"base_weights":[-9.2798084E-2,-3.2060796E-1,1.5032384E-1,-2.1480434E-1,-5.9313435E-2,-5.6532856E-2,2.9759175E-1,-5.766316E-2,-5.397876E-3,4.7706544E-1,-5.61168E-2,3.573186E-2,-4.346327E-2,5.578923E-3,7.747874E-2],"categories":[],"categories_nodes":[],"categories_segments":[],"categories_sizes":[],"default_left":[0,0,0,0,0,0,0,0,0,0,0,0,0,0,0],"id":24,"left_children":[1,3,5,7,-1,-1,9,-1,11,13,-1,-1,-1,-1,-1],"loss_changes":[1.4960519E1,3.889761E0,1.3966919E1,7.7196403E0,0E0,0E0,1.71039E1,0E0,1.03639555E1,1.1357065E1,0E0,0E0,0E0,0E0,0E0],"parents":[2147483647,0,0,1,1,2,2,3,3,6,6,8,8,9,9],"right_children":[2,4,6,8,-1,-1,10,-1,12,14,-1,-1,-1,-1,-1],"split_conditions":[1E0,4.5E1,6.5E0,6.6E0,-5.9313435E-2,-5.6532856E-2,7.4E0,-5.766316E-2,6.8E0,2.48E2,-5.61168E-2,3.573186E-2,-4.346327E-2,5.578923E-3,7.747874E-2],"split_indices":[2,1,0,0,0,0,0,0,0,4,0,0,0,0,0],"split_type":[0,0,0,0,0,0,0,0,0,0,0,0,0,0,0],"sum_hessian":[2.6824564E2,1.383192E2,1.2992644E2,1.0092502E2,3.739418E1,2.1689064E1,1.0823737E2,3.6354866E1,6.457015E1,8.9894615E1,1.834276E1,3.5087605E1,2.948255E1,3.771513E1,5.217948E1],"tree_param":{"num_deleted":"0","num_feature":"5","num_nodes":"15","size_leaf_vector":"1"}},{"base_weights":[5.755209E-2,-1.6534495E-1,7.333938E-2,7.393341E-2,-4.7163874E-1,-6.056222E-2,7.506096E-2],"categories":[],"categories_nodes":[],"categories_segments":[],"categories_sizes":[],"default_left":[0,0,0,0,0,0,0],"id":25,"left_children":[1,3,-1,-1,5,-1,-1],"loss_changes":[4.3960632E1,6.121483E1,0E0,0E0,2.7427402E1,0E0,0E0],"parents":[2147483647,0,0,1,1,4,4],"right_children":[2,4,-1,-1,6,-1,-1],"split_conditions":[7.4E0,6.5E0,7.333938E-2,7.393341E-2,5E1,-6.056222E-2,7.506096E-2],"split_indices":[0,0,0,0,1,0,0],"split_type":[0,0,0,0,0,0,0],"sum_hessian":[2.9001477E2,2.1865594E2,7.1358826E1,5.4947495E1,1.6370845E2,1.479902E2,1.5718249E1],"tree_param":{"num_deleted":"0","num_feature":"5","num_nodes":"7","size_leaf_vector":"1"}},{"base_weights":[2.7498605E-2,3.313451E-1,-3.8769874E-1,4.337417E-1,-5.688212E-2,-4.9807742E-2,-5.9933066E-2,-5.368198E-2,4.882021E-1,2.189257E-1,-5.6770336E-2,7.2127625E-2,3.624109E-2,-1.9696018E-2,7.621476E-2],"categories":[],"categories_nodes":[],"categories_segments":[],"categories_sizes":[],"default_left":[0,0,0,0,0,0,0,0,0,0,0,0,0,0,0],"id":26,"left_children":[1,3,5,7,-1,9,-1,-1,11,13,-1,-1,-1,-1,-1],"loss_changes":[3.791753E1,1.6239225E1,9.054464E0,8.526304E0,0E0,7.085238E0,0E0,0E0,4.094387E0,7.752394E0,0E0,0E0,0E0,0E0,0E0],"parents":[2147483647,0,0,1,1,2,2,3,3,5,5,8,8,9,9],"right_children":[2,4,6,8,-1,10,-1,-1,12,14,-1,-1,-1,-1,-1],"split_conditions":[1E0,5E1,1E0,5.5E0,-5.688212E-2,7.4E0,-5.9933066E-2,-5.368198E-2,6.6E0,6.7E0,-5.6770336E-2,7.2127625E-2,3.624109E-2,-1.9696018E-2,7.621476E-2],"split_indices":[3,1,2,0,0,0,0,0,0,0,0,0,0,0,0],"split_type":[0,0,0,0,0,0,0,0,0,0,0,0,0,0,0],"sum_hessian":[2.9854178E2,1.7250352E2,1.2603824E2,1.5535014E2,1.7153385E1,4.901552E1,7.702272E1,7.7833214E0,1.4756683E2,3.2650578E1,1.6364943E1,5.0066475E1,9.750035E1,1.8853743E1,1.3796834E1],"tree_param":{"num_deleted":"0","num_feature":"5","num_nodes":"15","size_leaf_vector":"1"}},{"base_weights":[-8.701244E-2,-3.0501947E-1,1.4431451E-1,-1.9973965E-1,-5.836559E-2,-5.5472355E-2,2.8239563E-1,-5.6662705E-2,1.187839E-3,4.482084E-1,-5.5038597E-2,3.3902787E-2,-4.1931134E-2,4.955298E-3,7.388135E-2],"categories":[],"categories_nodes":[],"categories_segments":[],"categories_sizes":[],"default_left":[0,0,0,0,0,0,0,0,0,0,0,0,0,0,0],"id":27,"left_children":[1,3,5,7,-1,-1,9,-1,11,13,-1,-1,-1,-1,-1],"loss_changes":[1.308238E1,3.797349E0,1.2329903E1,7.2511883E0,0E0,0E0,1.4880522E1,0E0,9.312075E0,1.0266109E1,0E0,0E0,0E0,0E0,0E0],"parents":[2147483647,0,0,1,1,2,2,3,3,6,6,8,8,9,9],"right_children":[2,4,6,8,-1,-1,10,-1,12,14,-1,-1,-1,-1,-1],"split_conditions":[1E0,4.5E1,6.5E0,6.6E0,-5.836559E-2,-5.5472355E-2,7.4E0,-5.6662705E-2,6.8E0,2.48E2,-5.5038597E-2,3.3902787E-2,-4.1931134E-2,4.955298E-3,7.388135E-2],"split_indices":[2,1,0,0,0,0,0,0,0,4,0,0,0,0,0],"split_type":[0,0,0,0,0,0,0,0,0,0,0,0,0,0,0],"sum_hessian":[2.5753915E2,1.3242278E2,1.2511636E2,9.735506E1,3.5067722E1,2.0139984E1,1.0497638E2,3.3806103E1,6.3548954E1,8.793057E1,1.704581E1,3.5345337E1,2.8203619E1,3.756668E1,5.036389E1],"tree_param":{"num_deleted":"0","num_feature":"5","num_nodes":"15","size_leaf_vector":"1"}},{"base_weights":[5.2980874E-2,-1.6039054E-1,7.137395E-2,7.095337E-2,-3.6966854E-1,-5.94228E-2,6.9224164E-2],"categories":[],"categories_nodes":[],"categories_segments":[],"categories_sizes":[],"default_left":[0,0,0,0,0,0,0],"id":28,"left_children":[1,3,-1,-1,5,-1,-1],"loss_changes":[3.904618E1,3.841205E1,0E0,0E0,4.0847656E1,0E0,0E0],"parents":[2147483647,0,0,1,1,4,4],"right_children":[2,4,-1,-1,6,-1,-1],"split_conditions":[5E1,5.6E0,7.137395E-2,7.095337E-2,7.4E0,-5.94228E-2,6.9224164E-2],"split_indices":[1,0,0,0,0,0,0],"split_type":[0,0,0,0,0,0,0],"sum_hessian":[2.7513687E2,2.0854956E2,6.6587326E1,3.9978218E1,1.6857133E2,1.3950995E2,2.9061394E1],"tree_param":{"num_deleted":"0","num_feature":"5","num_nodes":"7","size_leaf_vector":"1"}},{"base_weights":[2.7278032E-2,3.1322408E-1,-3.7544647E-1,4.0745312E-1,-5.56747E-2,-4.5918763E-2,-5.8880437E-2,-5.2321758E-2,4.5732832E-1,2.0521507E-1,-5.5548497E-2,6.5832905E-2,3.1845998E-2,-1.8533908E-2,7.1518086E-2],"categories":[],"categories_nodes":[],"categories_segments":[],"categories_sizes":[],"default_left":[0,0,0,0,0,0,0,0,0,0,0,0,0,0,0],"id":29,"left_children":[1,3,5,7,-1,9,-1,-1,11,13,-1,-1,-1,-1,-1],"loss_changes":[3.332545E1,1.40955715E1,8.423195E0,7.3515015E0,0E0,6.2974777E0,0E0,0E0,3.864561E0,6.7246804E0,0E0,0E0,0E0,0E0,0E0],"parents":[2147483647,0,0,1,1,2,2,3,3,5,5,8,8,9,9],"right_children":[2,4,6,8,-1,10,-1,-1,12,14,-1,-1,-1,-1,-1],"split_conditions":[1E0,5E1,1E0,5.5E0,-5.56747E-2,7.4E0,-5.8880437E-2,-5.2321758E-2,2.48E2,6.7E0,-5.5548497E-2,6.5832905E-2,3.1845998E-2,-1.8533908E-2,7.1518086E-2],"split_indices":[3,1,2,0,0,0,0,0,4,0,0,0,0,0,0],"split_type":[0,0,0,0,0,0,0,0,0,0,0,0,0,0,0],"sum_hessian":[2.8736905E2,1.681792E2,1.1918986E2,1.5222313E2,1.5956075E1,4.7320053E1,7.1869804E1,7.2600555E0,1.4496307E2,3.2098133E1,1.522192E1,5.7702583E1,8.726048E1,1.8537708E1,1.3560425E1],"tree_param":{"num_deleted":"0","num_feature":"5","num_nodes":"15","size_leaf_vector":"1"}},{"base_weights":[-8.103309E-2,-2.9066265E-1,1.4154875E-1,-1.8658958E-1,-5.750349E-2,-5.448978E-2,2.7207547E-1,-5.590551E-2,8.864703E-3,4.2681047E-1,-5.403744E-2,3.2256808E-2,-4.0286567E-2,5.2165445E-3,7.077195E-2],"categories":[],"categories_nodes":[],"categories_segments":[],"categories_sizes":[],"default_left":[0,0,0,0,0,0,0,0,0,0,0,0,0,0,0],"id":30,"left_children":[1,3,5,7,-1,-1,9,-1,11,13,-1,-1,-1,-1,-1],"loss_changes":[1.1614024E1,3.6826277E0,1.0987095E1,6.9375806E0,0E0,0E0,1.3092421E1,0E0,8.32383E0,9.066467E0,0E0,0E0,0E0,0E0,0E0],"parents":[2147483647,0,0,1,1,2,2,3,3,6,6,8,8,9,9],"right_children":[2,4,6,8,-1,-1,10,-1,12,14,-1,-1,-1,-1,-1],"split_conditions":[1E0,4.5E1,6.5E0,6.6E0,-5.750349E-2,-5.448978E-2,7.4E0,-5.590551E-2,6.8E0,2.48E2,-5.403744E-2,3.2256808E-2,-4.0286567E-2,5.2165445E-3,7.077195E-2],"split_indices":[2,1,0,0,0,0,0,0,0,4,0,0,0,0,0],"split_type":[0,0,0,0,0,0,0,0,0,0,0,0,0,0,0],"sum_hessian":[2.4702719E2,1.2705747E2,1.1996972E2,9.422842E1,3.2829063E1,1.86602E1,1.01309525E2,3.1789255E1,6.2439156E1,8.550025E1,1.5809271E1,3.556115E1,2.6878006E1,3.7145473E1,4.835478E1],"tree_param":{"num_deleted":"0","num_feature":"5","num_nodes":"15","size_leaf_vector":"1"}},{"base_weights":[4.8259623E-2,-1.5953507E-1,6.881698E-2,6.837099E-2,-3.6407277E-1,-5.8390893E-2,6.670597E-2],"categories":[],"categories_nodes":[],"categories_segments":[],"categories_sizes":[],"default_left":[0,0,0,0,0,0,0],"id":31,"left_children":[1,3,-1,-1,5,-1,-1],"loss_changes":[3.486101E1,3.4415504E1,0E0,0E0,3.6675953E1,0E0,0E0],"parents":[2147483647,0,0,1,1,4,4],"right_children":[2,4,-1,-1,6,-1,-1],"split_conditions":[5E1,5.6E0,6.881698E-2,6.837099E-2,7.4E0,-5.8390893E-2,6.670597E-2],"split_indices":[1,0,0,0,0,0,0],"split_type":[0,0,0,0,0,0,0],"sum_hessian":[2.603465E2,1.9709541E2,6.3251076E1,3.801768E1,1.5907773E2,1.3148006E2,2.7597666E1],"tree_param":{"num_deleted":"0","num_feature":"5","num_nodes":"7","size_leaf_vector":"1"}},{"base_weights":[2.6971655E-2,2.9578876E-1,-3.6409405E-1,3.8234854E-1,-5.4556932E-2,-4.2420145E-2,-5.7938106E-2,-5.1041823E-2,4.2796272E-1,1.9279231E-1,-5.4422405E-2,6.6761754E-2,3.0830113E-2,-1.7426569E-2,6.744025E-2],"categories":[],"categories_nodes":[],"categories_segments":[],"categories_sizes":[],"default_left":[0,0,0,0,0,0,0,0,0,0,0,0,0,0,0],"id":32,"left_children":[1,3,5,7,-1,9,-1,-1,11,13,-1,-1,-1,-1,-1],"loss_changes":[2.9284966E1,1.2227707E1,7.836463E0,6.336132E0,0E0,5.6040287E0,0E0,0E0,3.9085064E0,5.8557653E0,0E0,0E0,0E0,0E0,0E0],"parents":[2147483647,0,0,1,1,2,2,3,3,5,5,8,8,9,9],"right_children":[2,4,6,8,-1,10,-1,-1,12,14,-1,-1,-1,-1,-1],"split_conditions":[1E0,5E1,1E0,5.5E0,-5.4556932E-2,7.4E0,-5.7938106E-2,-5.1041823E-2,6.6E0,6.7E0,-5.4422405E-2,6.6761754E-2,3.0830113E-2,-1.7426569E-2,6.744025E-2],"split_indices":[3,1,2,0,0,0,0,0,0,0,0,0,0,0,0],"split_type":[0,0,0,0,0,0,0,0,0,0,0,0,0,0,0],"sum_hessian":[2.7654794E2,1.6403473E2,1.1251322E2,1.492276E2,1.480713E1,4.559055E1,6.6922676E1,6.758548E0,1.4246906E2,3.145999E1,1.413056E1,4.5920856E1,9.6548195E1,1.8215359E1,1.3244631E1],"tree_param":{"num_deleted":"0","num_feature":"5","num_nodes":"15","size_leaf_vector":"1"}},{"base_weights":[-7.569489E-2,-2.7589577E-1,1.3645446E-1,-1.7247213E-1,-5.67168E-2,-5.357481E-2,2.5928742E-1,-5.5049997E-2,1.4593019E-2,4.0302622E-1,-5.3100538E-2,3.0692397E-2,-3.882241E-2,4.6521486E-3,6.810519E-2],"categories":[],"categories_nodes":[],"categories_segments":[],"categories_sizes":[],"default_left":[0,0,0,0,0,0,0,0,0,0,0,0,0,0,0],"id":33,"left_children":[1,3,5,7,-1,-1,9,-1,11,13,-1,-1,-1,-1,-1],"loss_changes":[1.0131748E1,3.5955944E0,9.721565E0,6.5079165E0,0E0,0E0,1.1437258E1,0E0,7.4744844E0,8.310444E0,0E0,0E0,0E0,0E0,0E0],"parents":[2147483647,0,0,1,1,2,2,3,3,6,6,8,8,9,9],"right_children":[2,4,6,8,-1,-1,10,-1,12,14,-1,-1,-1,-1,-1],"split_conditions":[1E0,4.5E1,6.5E0,6.6E0,-5.67168E-2,-5.357481E-2,7.4E0,-5.5049997E-2,6.8E0,2.48E2,-5.3100538E-2,3.0692397E-2,-3.882241E-2,4.6521486E-3,6.810519E-2],"split_indices":[2,1,0,0,0,0,0,0,0,4,0,0,0,0,0],"split_type":[0,0,0,0,0,0,0,0,0,0,0,0,0,0,0],"sum_hessian":[2.3666208E2,1.2160526E2,1.15056816E2,9.091552E1,3.0689743E1,1.7256905E1,9.779991E1,2.9453012E1,6.146251E1,8.316403E1,1.4635884E1,3.5753597E1,2.5708912E1,3.6950603E1,4.6213425E1],"tree_param":{"num_deleted":"0","num_feature":"5","num_nodes":"15","size_leaf_vector":"1"}},{"base_weights":[4.398514E-2,-1.5886259E-1,6.6617504E-2,6.613627E-2,-3.5909784E-1,-5.7451665E-2,6.451743E-2],"categories":[],"categories_nodes":[],"categories_segments":[],"categories_sizes":[],"default_left":[0,0,0,0,0,0,0],"id":34,"left_children":[1,3,-1,-1,5,-1,-1],"loss_changes":[3.1227488E1,3.0911757E1,0E0,0E0,3.298762E1,0E0,0E0],"parents":[2147483647,0,0,1,1,4,4],"right_children":[2,4,-1,-1,6,-1,-1],"split_conditions":[5E1,5.6E0,6.6617504E-2,6.613627E-2,7.4E0,-5.7451665E-2,6.451743E-2],"split_indices":[1,0,0,0,0,0,0],"split_type":[0,0,0,0,0,0,0],"sum_hessian":[2.4558667E2,1.8576714E2,5.9819546E1,3.599943E1,1.497677E2,1.2366844E2,2.6099257E1],"tree_param":{"num_deleted":"0","num_feature":"5","num_nodes":"7","size_leaf_vector":"1"}},{"base_weights":[2.6813837E-2,2.8051364E-1,-3.5348943E-1,3.6044428E-1,-5.351753E-2,-3.9211094E-2,-5.709092E-2,-4.9828578E-2,4.024195E-1,1.8150689E-1,-5.3375103E-2,6.4293966E-2,2.8795898E-2,-1.6369453E-2,6.386071E-2],"categories":[],"categories_nodes":[],"categories_segments":[],"categories_sizes":[],"default_left":[0,0,0,0,0,0,0,0,0,0,0,0,0,0,0],"id":35,"left_children":[1,3,5,7,-1,9,-1,-1,11,13,-1,-1,-1,-1,-1],"loss_changes":[2.5803804E1,1.0648538E1,7.292411E0,5.486635E0,0E0,4.992256E0,0E0,0E0,3.679266E0,5.1152244E0,0E0,0E0,0E0,0E0,0E0],"parents":[2147483647,0,0,1,1,2,2,3,3,5,5,8,8,9,9],"right_children":[2,4,6,8,-1,10,-1,-1,12,14,-1,-1,-1,-1,-1],"split_conditions":[1E0,5E1,1E0,5.5E0,-5.351753E-2,7.4E0,-5.709092E-2,-4.9828578E-2,6.6E0,6.7E0,-5.3375103E-2,6.4293966E-2,2.8795898E-2,-1.6369453E-2,6.386071E-2],"split_indices":[3,1,2,0,0,0,0,0,0,0,0,0,0,0,0],"split_type":[0,0,0,0,0,0,0,0,0,0,0,0,0,0,0],"sum_hessian":[2.654167E2,1.5936613E2,1.0605055E2,1.4565163E2,1.3714517E1,4.384841E1,6.2202137E1,6.281132E0,1.3937048E2,3.0755093E1,1.3093319E1,4.345009E1,9.5920395E1,1.7887993E1,1.28671E1],"tree_param":{"num_deleted":"0","num_feature":"5","num_nodes":"15","size_leaf_vector":"1"}},{"base_weights":[-7.0544794E-2,-2.6148692E-1,1.317003E-1,-1.5880744E-1,-5.5996623E-2,-5.271682E-2,2.47429E-1,-5.4259505E-2,1.9992756E-2,3.8119268E-1,-5.2217495E-2,2.924642E-2,-3.7381332E-2,4.3644286E-3,6.887945E-2],"categories":[],"categories_nodes":[],"categories_segments":[],"categories_sizes":[],"default_left":[0,0,0,0,0,0,0,0,0,0,0,0,0,0,0],"id":36,"left_children":[1,3,5,7,-1,-1,9,-1,11,13,-1,-1,-1,-1,-1],"loss_changes":[8.824071E0,3.5094633E0,8.609312E0,6.10133E0,0E0,0E0,1.0006149E1,0E0,6.709575E0,8.456753E0,0E0,0E0,0E0,0E0,0E0],"parents":[2147483647,0,0,1,1,2,2,3,3,6,6,8,8,9,9],"right_children":[2,4,6,8,-1,-1,10,-1,12,14,-1,-1,-1,-1,-1],"split_conditions":[1E0,4.5E1,6.5E0,6.6E0,-5.5996623E-2,-5.271682E-2,7.4E0,-5.4259505E-2,6.8E0,6.8E0,-5.2217495E-2,2.924642E-2,-3.7381332E-2,4.3644286E-3,6.887945E-2],"split_indices":[2,1,0,0,0,0,0,0,0,0,0,0,0,0,0],"split_type":[0,0,0,0,0,0,0,0,0,0,0,0,0,0,0],"sum_hessian":[2.2660982E2,1.1641142E2,1.10198395E2,8.775499E1,2.8656427E1,1.59330225E1,9.426537E1,2.724342E1,6.0511574E1,8.073724E1,1.3528127E1,3.5917717E1,2.4593855E1,3.9039227E1,4.1698017E1],"tree_param":{"num_deleted":"0","num_feature":"5","num_nodes":"15","size_leaf_vector":"1"}},{"base_weights":[3.981367E-2,-1.5858641E-1,6.471205E-2,6.41877E-2,-3.5481277E-1,-5.659281E-2,6.2599406E-2],"categories":[],"categories_nodes":[],"categories_segments":[],"categories_sizes":[],"default_left":[0,0,0,0,0,0,0],"id":37,"left_children":[1,3,-1,-1,5,-1,-1],"loss_changes":[2.8074272E1,2.7839039E1,0E0,0E0,2.9720575E1,0E0,0E0],"parents":[2147483647,0,0,1,1,4,4],"right_children":[2,4,-1,-1,6,-1,-1],"split_conditions":[5E1,5.6E0,6.471205E-2,6.41877E-2,7.4E0,-5.659281E-2,6.2599406E-2],"split_indices":[1,0,0,0,0,0,0],"split_type":[0,0,0,0,0,0,0],"sum_hessian":[2.3114966E2,1.7478749E2,5.6362175E1,3.3964695E1,1.408228E2,1.1622809E2,2.4594706E1],"tree_param":{"num_deleted":"0","num_feature":"5","num_nodes":"7","size_leaf_vector":"1"}},{"base_weights":[2.6668968E-2,2.6631832E-1,-3.4353578E-1,3.4021518E-1,-5.2543562E-2,-3.626095E-2,-5.6327432E-2,5.765767E-1,1.8826464E-1,1.7118794E-1,-5.2393436E-2,7.877416E-2,2.837812E-2,-6.785307E-2,3.1651612E-2,-1.536251E-2,6.0683936E-2],"categories":[],"categories_nodes":[],"categories_segments":[],"categories_sizes":[],"default_left":[0,0,0,0,0,0,0,0,0,0,0,0,0,0,0,0,0],"id":38,"left_children":[1,3,5,7,-1,9,-1,11,13,15,-1,-1,-1,-1,-1,-1,-1],"loss_changes":[2.2759388E1,9.286272E0,6.788232E0,5.0266533E0,0E0,4.451383E0,0E0,3.205761E0,1.0054886E1,4.4799953E0,0E0,0E0,0E0,0E0,0E0,0E0,0E0],"parents":[2147483647,0,0,1,1,2,2,3,3,5,5,7,7,8,8,9,9],"right_children":[2,4,6,8,-1,10,-1,12,14,16,-1,-1,-1,-1,-1,-1,-1],"split_conditions":[1E0,5E1,1E0,2.48E2,-5.2543562E-2,7.4E0,-5.6327432E-2,6.8E0,2.55E2,6.7E0,-5.2393436E-2,7.877416E-2,2.837812E-2,-6.785307E-2,3.1651612E-2,-1.536251E-2,6.0683936E-2],"split_indices":[3,1,2,4,0,0,0,0,4,0,0,0,0,0,0,0,0],"split_type":[0,0,0,0,0,0,0,0,0,0,0,0,0,0,0,0,0],"sum_hessian":[2.5450124E2,1.5466232E2,9.983892E1,1.419811E2,1.2681232E1,4.2113655E1,5.772526E1,5.4465153E1,8.751594E1,3.0000757E1,1.2112898E1,3.0661547E1,2.3803604E1,1.0726901E1,7.678904E1,1.7557558E1,1.2443199E1],"tree_param":{"num_deleted":"0","num_feature":"5","num_nodes":"17","size_leaf_vector":"1"}},{"base_weights":[-6.5811686E-2,1.1079709E-2,-5.387351E-2,-3.9349645E-1,1.6159059E-1,-5.3723015E-2,-1.9869103E-1,6.667626E-1,4.895133E-2,-5.1906236E-2,3.9549466E-2,-4.7521673E-2,8.7736756E-2,-1.7991697E-2,4.256194E-2],"categories":[],"categories_nodes":[],"categories_segments":[],"categories_sizes":[],"default_left":[0,0,0,0,0,0,0,0,0,0,0,0,0,0,0],"id":39,"left_children":[1,3,-1,5,7,-1,9,11,13,-1,-1,-1,-1,-1,-1],"loss_changes":[7.960293E0,1.158042E1,0E0,1.3373313E0,7.851618E0,0E0,4.6756372E0,6.47353E0,9.93658E0,0E0,0E0,0E0,0E0,0E0,0E0],"parents":[2147483647,0,0,1,1,3,3,4,4,6,6,7,7,8,8],"right_children":[2,4,-1,6,8,-1,10,12,14,-1,-1,-1,-1,-1,-1],"split_conditions":[7.4E0,6.6E0,-5.387351E-2,1E0,3.8E1,-5.3723015E-2,6.5E0,2.47E2,1E0,-5.1906236E-2,3.9549466E-2,-4.7521673E-2,8.7736756E-2,-1.7991697E-2,4.256194E-2],"split_indices":[0,0,0,2,1,0,0,4,3,0,0,0,0,0,0],"split_type":[0,0,0,0,0,0,0,0,0,0,0,0,0,0,0],"sum_hessian":[2.1774327E2,1.8813196E2,2.9611317E1,5.0573906E1,1.3755804E2,2.8090246E1,2.248366E1,2.418265E1,1.133754E2,1.4689726E1,7.793934E0,3.5697396E0,2.061291E1,7.0849E1,4.25264E1],"tree_param":{"num_deleted":"0","num_feature":"5","num_nodes":"15","size_leaf_vector":"1"}},{"base_weights":[3.5539914E-2,-1.581707E-1,6.305106E-2,6.264565E-2,-3.517309E-1,-5.5804707E-2,6.0905498E-2],"categories":[],"categories_nodes":[],"categories_segments":[],"categories_sizes":[],"default_left":[0,0,0,0,0,0,0],"id":40,"left_children":[1,3,-1,-1,5,-1,-1],"loss_changes":[2.5313883E1,2.540683E1,0E0,0E0,2.6835558E1,0E0,0E0],"parents":[2147483647,0,0,1,1,4,4],"right_children":[2,4,-1,-1,6,-1,-1],"split_conditions":[5E1,5.6E0,6.305106E-2,6.264565E-2,7.4E0,-5.5804707E-2,6.0905498E-2],"split_indices":[1,0,0,0,0,0,0],"split_type":[0,0,0,0,0,0,0],"sum_hessian":[2.1777386E2,1.6483955E2,5.2934322E1,3.2175312E1,1.3266425E2,1.095574E2,2.3106834E1],"tree_param":{"num_deleted":"0","num_feature":"5","num_nodes":"7","size_leaf_vector":"1"}},{"base_weights":[2.6935052E-2,2.538114E-1,-3.3476767E-1,3.219421E-1,-5.1623445E-2,-3.3537123E-2,-5.5634152E-2,5.5339795E-1,1.7372198E-1,1.6170378E-1,-5.146577E-2,7.620274E-2,2.708878E-2,-6.490149E-2,2.9693952E-2,-1.4405074E-2,5.7836246E-2],"categories":[],"categories_nodes":[],"categories_segments":[],"categories_sizes":[],"default_left":[0,0,0,0,0,0,0,0,0,0,0,0,0,0,0,0,0],"id":41,"left_children":[1,3,5,7,-1,9,-1,11,13,15,-1,-1,-1,-1,-1,-1,-1],"loss_changes":[2.0255802E1,8.120858E0,6.3340216E0,4.703786E0,0E0,3.9723463E0,0E0,2.985918E0,8.987125E0,3.932187E0,0E0,0E0,0E0,0E0,0E0,0E0,0E0],"parents":[2147483647,0,0,1,1,2,2,3,3,5,5,7,7,8,8,9,9],"right_children":[2,4,6,8,-1,10,-1,12,14,16,-1,-1,-1,-1,-1,-1,-1],"split_conditions":[1E0,5E1,1E0,2.48E2,-5.1623445E-2,7.4E0,-5.5634152E-2,6.8E0,2.55E2,6.7E0,-5.146577E-2,7.620274E-2,2.708878E-2,-6.490149E-2,2.9693952E-2,-1.4405074E-2,5.7836246E-2],"split_indices":[3,1,2,4,0,0,0,0,4,0,0,0,0,0,0,0,0],"split_type":[0,0,0,0,0,0,0,0,0,0,0,0,0,0,0,0,0],"sum_hessian":[2.4480058E2,1.5062195E2,9.417863E1,1.3891335E2,1.1708605E1,4.0402554E1,5.3776073E1,5.3162636E1,8.575072E1,2.9212065E1,1.1190487E1,2.960353E1,2.3559103E1,1.0613823E1,7.5136894E1,1.7225693E1,1.1986372E1],"tree_param":{"num_deleted":"0","num_feature":"5","num_nodes":"17","size_leaf_vector":"1"}},{"base_weights":[-6.1091896E-2,1.2126735E-2,-5.3185847E-2,-3.8949224E-1,1.5479119E-1,-5.314218E-2,-1.9636409E-1,6.418867E-1,4.739125E-2,-5.113369E-2,3.685833E-2,-4.6565276E-2,8.415716E-2,-1.6334416E-2,3.9772026E-2],"categories":[],"categories_nodes":[],"categories_segments":[],"categories_sizes":[],"default_left":[0,0,0,0,0,0,0,0,0,0,0,0,0,0,0],"id":42,"left_children":[1,3,-1,5,7,-1,9,11,13,-1,-1,-1,-1,-1,-1],"loss_changes":[7.2371902E0,1.0518003E1,0E0,1.2147846E0,7.052552E0,0E0,4.098185E0,5.7837505E0,8.334538E0,0E0,0E0,0E0,0E0,0E0,0E0],"parents":[2147483647,0,0,1,1,3,3,4,4,6,6,7,7,8,8],"right_children":[2,4,-1,6,8,-1,10,12,14,-1,-1,-1,-1,-1,-1],"split_conditions":[7.4E0,6.6E0,-5.3185847E-2,1E0,3.8E1,-5.314218E-2,6.5E0,2.47E2,1E0,-5.113369E-2,3.685833E-2,-4.6565276E-2,8.415716E-2,-1.6334416E-2,3.9772026E-2],"split_indices":[0,0,0,2,1,0,0,4,3,0,0,0,0,0,0],"split_type":[0,0,0,0,0,0,0,0,0,0,0,0,0,0,0],"sum_hessian":[2.0877588E2,1.8151845E2,2.7257442E1,4.7125084E1,1.3439336E2,2.6153366E1,2.0971718E1,2.3380081E1,1.11013275E2,1.352569E1,7.4460278E0,3.3679605E0,2.0012121E1,6.965003E1,4.1363243E1],"tree_param":{"num_deleted":"0","num_feature":"5","num_nodes":"15","size_leaf_vector":"1"}},{"base_weights":[3.209956E-2,-1.5785809E-1,6.1665118E-2,6.127865E-2,-3.4929982E-1,-5.5050444E-2,5.9327897E-2],"categories":[],"categories_nodes":[],"categories_segments":[],"categories_sizes":[],"default_left":[0,0,0,0,0,0,0],"id":43,"left_children":[1,3,-1,-1,5,-1,-1],"loss_changes":[2.2945024E1,2.3242798E1,0E0,0E0,2.4159788E1,0E0,0E0],"parents":[2147483647,0,0,1,1,4,4],"right_children":[2,4,-1,-1,6,-1,-1],"split_conditions":[5E1,5.6E0,6.1665118E-2,6.127865E-2,7.4E0,-5.5050444E-2,5.9327897E-2],"split_indices":[1,0,0,0,0,0,0],"split_type":[0,0,0,0,0,0,0],"sum_hessian":[2.0476071E2,1.5509163E2,4.9669086E1,3.0423119E1,1.246685E2,1.0308067E2,2.1587835E1],"tree_param":{"num_deleted":"0","num_feature":"5","num_nodes":"7","size_leaf_vector":"1"}},{"base_weights":[2.6311321E-2,2.3806205E-1,-3.2243454E-1,3.0064118E-1,-5.0740834E-2,-2.4183987E-2,-5.4969676E-2,5.2393913E-1,1.5863268E-1,1.6198817E-1,-5.0591107E-2,7.352182E-2,2.456359E-2,-6.1824597E-2,2.7580753E-2,-1.27436025E-2,5.6013703E-2],"categories":[],"categories_nodes":[],"categories_segments":[],"categories_sizes":[],"default_left":[0,0,0,0,0,0,0,0,0,0,0,0,0,0,0,0,0],"id":44,"left_children":[1,3,5,7,-1,9,-1,11,13,15,-1,-1,-1,-1,-1,-1,-1],"loss_changes":[1.7508366E1,7.031102E0,6.0600433E0,4.250287E0,0E0,3.6509538E0,0E0,2.9175158E0,7.9051247E0,3.4661798E0,0E0,0E0,0E0,0E0,0E0,0E0,0E0],"parents":[2147483647,0,0,1,1,2,2,3,3,5,5,7,7,8,8,9,9],"right_children":[2,4,6,8,-1,10,-1,12,14,16,-1,-1,-1,-1,-1,-1,-1],"split_conditions":[1E0,5E1,1E0,2.48E2,-5.0740834E-2,7.4E0,-5.4969676E-2,6.8E0,2.55E2,6.7E0,-5.0591107E-2,7.352182E-2,2.456359E-2,-6.1824597E-2,2.7580753E-2,-1.27436025E-2,5.6013703E-2],"split_indices":[3,1,2,4,0,0,0,0,4,0,0,0,0,0,0,0,0],"split_type":[0,0,0,0,0,0,0,0,0,0,0,0,0,0,0,0,0],"sum_hessian":[2.350497E2,1.4644745E2,8.860226E1,1.3565637E2,1.0791078E1,3.879523E1,4.9807022E1,5.168928E1,8.396709E1,2.846006E1,1.0335172E1,2.844951E1,2.323977E1,1.0444296E1,7.352279E1,1.6873922E1,1.1586139E1],"tree_param":{"num_deleted":"0","num_feature":"5","num_nodes":"17","size_leaf_vector":"1"}},{"base_weights":[-5.6586593E-2,1.3115504E-2,-5.254199E-2,-3.8603485E-1,1.4858137E-1,-5.2605283E-2,-1.9445139E-1,6.202161E-1,4.6065178E-2,-5.0391335E-2,3.4267418E-2,-4.5639288E-2,8.107654E-2,-1.475669E-2,3.716674E-2],"categories":[],"categories_nodes":[],"categories_segments":[],"categories_sizes":[],"default_left":[0,0,0,0,0,0,0,0,0,0,0,0,0,0,0],"id":45,"left_children":[1,3,-1,5,7,-1,9,11,13,-1,-1,-1,-1,-1,-1],"loss_changes":[6.580382E0,9.579073E0,0E0,1.1021209E0,6.363184E0,0E0,3.587626E0,5.1958914E0,6.9694133E0,0E0,0E0,0E0,0E0,0E0,0E0],"parents":[2147483647,0,0,1,1,3,3,4,4,6,6,7,7,8,8],"right_children":[2,4,-1,6,8,-1,10,12,14,-1,-1,-1,-1,-1,-1],"split_conditions":[7.4E0,6.6E0,-5.254199E-2,1E0,3.8E1,-5.2605283E-2,6.5E0,2.47E2,1E0,-5.0391335E-2,3.4267418E-2,-4.5639288E-2,8.107654E-2,-1.475669E-2,3.716674E-2],"split_indices":[0,0,0,2,1,0,0,4,3,0,0,0,0,0,0],"split_type":[0,0,0,0,0,0,0,0,0,0,0,0,0,0,0],"sum_hessian":[2.0015543E2,1.7509573E2,2.50597E1,4.3898643E1,1.3119708E2,2.4353886E1,1.9544758E1,2.2523916E1,1.08673164E2,1.24395895E1,7.105169E0,3.1772463E0,1.934667E1,6.8489815E1,4.0183353E1],"tree_param":{"num_deleted":"0","num_feature":"5","num_nodes":"15","size_leaf_vector":"1"}},{"base_weights":[2.8734408E-2,-1.5778913E-1,6.0447153E-2,6.00595E-2,-3.473481E-1,-5.4350823E-2,5.791524E-2],"categories":[],"categories_nodes":[],"categories_segments":[],"categories_sizes":[],"default_left":[0,0,0,0,0,0,0],"id":46,"left_children":[1,3,-1,-1,5,-1,-1],"loss_changes":[2.0854717E1,2.1312494E1,0E0,0E0,2.1774727E1,0E0,0E0],"parents":[2147483647,0,0,1,1,4,4],"right_children":[2,4,-1,-1,6,-1,-1],"split_conditions":[5E1,5.6E0,6.0447153E-2,6.00595E-2,7.4E0,-5.4350823E-2,5.791524E-2],"split_indices":[1,0,0,0,0,0,0],"split_type":[0,0,0,0,0,0,0],"sum_hessian":[1.923106E2,1.458009E2,4.6509686E1,2.872201E1,1.1707889E2,9.696309E1,2.0115803E1],"tree_param":{"num_deleted":"0","num_feature":"5","num_nodes":"7","size_leaf_vector":"1"}},{"base_weights":[2.5719186E-2,2.2342952E-1,-3.103154E-1,2.8100413E-1,-4.9893554E-2,-1.4961319E-2,-5.4362793E-2,-4.7957998E-2,3.178352E-1,1.6254848E-1,-4.9749475E-2,5.80095E-2,2.1324074E-2,-1.1150988E-2,5.4347824E-2],"categories":[],"categories_nodes":[],"categories_segments":[],"categories_sizes":[],"default_left":[0,0,0,0,0,0,0,0,0,0,0,0,0,0,0],"id":47,"left_children":[1,3,5,7,-1,9,-1,-1,11,13,-1,-1,-1,-1,-1],"loss_changes":[1.5124254E1,6.097778E0,5.8048925E0,3.8868904E0,0E0,3.357745E0,0E0,0E0,3.380742E0,3.0590928E0,0E0,0E0,0E0,0E0,0E0],"parents":[2147483647,0,0,1,1,2,2,3,3,5,5,8,8,9,9],"right_children":[2,4,6,8,-1,10,-1,-1,12,14,-1,-1,-1,-1,-1],"split_conditions":[1E0,5E1,1E0,5.5E0,-4.9893554E-2,7.4E0,-5.4362793E-2,-4.7957998E-2,6.6E0,6.7E0,-4.9749475E-2,5.80095E-2,2.1324074E-2,-1.1150988E-2,5.4347824E-2],"split_indices":[3,1,2,0,0,0,0,0,0,0,0,0,0,0,0],"split_type":[0,0,0,0,0,0,0,0,0,0,0,0,0,0,0],"sum_hessian":[2.2560275E2,1.4224573E2,8.3357025E1,1.3231113E2,9.934593E0,3.725696E1,4.6100063E1,5.555967E0,1.2675516E2,2.7721996E1,9.534967E0,3.484323E1,9.191193E1,1.6533968E1,1.1188026E1],"tree_param":{"num_deleted":"0","num_feature":"5","num_nodes":"15","size_leaf_vector":"1"}},{"base_weights":[-5.1924206E-2,1.4248153E-2,-5.2259125E-2,-3.6166996E-1,1.18137516E-1,-5.196633E-2,-9.635449E-2,-6.0020447E-2,1.7167218E-1,-4.7517177E-2,3.209994E-2,2.3516528E-2,-4.956766E-2],"categories":[],"categories_nodes":[],"categories_segments":[],"categories_sizes":[],"default_left":[0,0,0,0,0,0,0,0,0,0,0,0,0],"id":48,"left_children":[1,3,-1,5,7,-1,9,-1,11,-1,-1,-1,-1],"loss_changes":[6.0187335E0,6.689364E0,0E0,1.5049448E0,5.2598166E0,0E0,2.5356364E0,0E0,5.4373116E0,0E0,0E0,0E0,0E0],"parents":[2147483647,0,0,1,1,3,3,4,4,6,6,8,8],"right_children":[2,4,-1,6,8,-1,10,-1,12,-1,-1,-1,-1],"split_conditions":[5E1,6.6E0,-5.2259125E-2,1E0,2.45E2,-5.196633E-2,4.7E0,-6.0020447E-2,7.4E0,-4.7517177E-2,3.209994E-2,2.3516528E-2,-4.956766E-2],"split_indices":[1,0,0,2,4,0,0,0,0,0,0,0,0],"split_type":[0,0,0,0,0,0,0,0,0,0,0,0,0],"sum_hessian":[1.9200879E2,1.6919142E2,2.2817356E1,3.609658E1,1.3309485E2,2.2023247E1,1.4073332E1,8.522759E0,1.2457209E2,7.304638E0,6.768694E0,1.14341034E2,1.0231058E1],"tree_param":{"num_deleted":"0","num_feature":"5","num_nodes":"13","size_leaf_vector":"1"}},{"base_weights":[2.5173519E-2,-1.5882304E-1,5.9371676E-2,5.880646E-2,-3.452836E-1,-5.3673513E-2,5.6640305E-2],"categories":[],"categories_nodes":[],"categories_segments":[],"categories_sizes":[],"default_left":[0,0,0,0,0,0,0],"id":49,"left_children":[1,3,-1,-1,5,-1,-1],"loss_changes":[1.9033766E1,1.9361862E1,0E0,0E0,1.9629074E1,0E0,0E0],"parents":[2147483647,0,0,1,1,4,4],"right_children":[2,4,-1,-1,6,-1,-1],"split_conditions":[5E1,5.6E0,5.9371676E-2,5.880646E-2,7.4E0,-5.3673513E-2,5.6640305E-2],"split_indices":[1,0,0,0,0,0,0],"split_type":[0,0,0,0,0,0,0],"sum_hessian":[1.8004837E2,1.3657085E2,4.3477516E1,2.685329E1,1.0971756E2,9.1015785E1,1.8701775E1],"tree_param":{"num_deleted":"0","num_feature":"5","num_nodes":"7","size_leaf_vector":"1"}},{"base_weights":[2.5163252E-2,2.1026774E-1,-2.9836306E-1,2.6349074E-1,-4.9073294E-2,-5.8852807E-3,-5.3805698E-2,4.7883883E-1,1.2676765E-1,1.633224E-1,-4.8933342E-2,7.009985E-2,2.008122E-2,-6.025082E-2,2.393178E-2,-9.62669E-3,5.2813973E-2],"categories":[],"categories_nodes":[],"categories_segments":[],"categories_sizes":[],"default_left":[0,0,0,0,0,0,0,0,0,0,0,0,0,0,0,0,0],"id":50,"left_children":[1,3,5,7,-1,9,-1,11,13,15,-1,-1,-1,-1,-1,-1,-1],"loss_changes":[1.3067026E1,5.3044806E0,5.5659986E0,3.754302E0,0E0,3.0895774E0,0E0,2.94495E0,6.7610235E0,2.7027702E0,0E0,0E0,0E0,0E0,0E0,0E0,0E0],"parents":[2147483647,0,0,1,1,2,2,3,3,5,5,7,7,8,8,9,9],"right_children":[2,4,6,8,-1,10,-1,12,14,16,-1,-1,-1,-1,-1,-1,-1],"split_conditions":[1E0,5E1,1E0,2.48E2,-4.9073294E-2,7.4E0,-5.3805698E-2,6.8E0,2.55E2,6.7E0,-4.8933342E-2,7.009985E-2,2.008122E-2,-6.025082E-2,2.393178E-2,-9.62669E-3,5.2813973E-2],"split_indices":[3,1,2,4,0,0,0,0,4,0,0,0,0,0,0,0,0],"split_type":[0,0,0,0,0,0,0,0,0,0,0,0,0,0,0,0,0],"sum_hessian":[2.1615012E2,1.3770992E2,7.8440186E1,1.2857228E2,9.13764E0,3.579148E1,4.264871E1,4.895795E1,7.9614334E1,2.7002672E1,8.78881E0,2.6367458E1,2.2590492E1,1.006223E1,6.95521E1,1.6206734E1,1.0795938E1],"tree_param":{"num_deleted":"0","num_feature":"5","num_nodes":"17","size_leaf_vector":"1"}},{"base_weights":[-4.80558E-2,1.4407424E-2,-5.1647473E-2,-3.5967216E-1,1.12917095E-1,-5.149327E-2,-9.856332E-2,-5.8889955E-2,1.6413231E-1,-4.6700474E-2,2.9643742E-2,6.1149478E-2,6.5835672E-3],"categories":[],"categories_nodes":[],"categories_segments":[],"categories_sizes":[],"default_left":[0,0,0,0,0,0,0,0,0,0,0,0,0],"id":51,"left_children":[1,3,-1,5,7,-1,9,-1,11,-1,-1,-1,-1],"loss_changes":[5.4552674E0,6.13048E0,0E0,1.3554382E0,4.8258524E0,0E0,2.2008176E0,0E0,5.3864193E0,0E0,0E0,0E0,0E0],"parents":[2147483647,0,0,1,1,3,3,4,4,6,6,8,8],"right_children":[2,4,-1,6,8,-1,10,-1,12,-1,-1,-1,-1],"split_conditions":[5E1,6.6E0,-5.1647473E-2,1E0,2.45E2,-5.149327E-2,4.7E0,-5.8889955E-2,3.8E1,-4.6700474E-2,2.9643742E-2,6.1149478E-2,6.5835672E-3],"split_indices":[1,0,0,2,4,0,0,0,1,0,0,0,0],"split_type":[0,0,0,0,0,0,0,0,0,0,0,0,0],"sum_hessian":[1.8519347E2,1.6425893E2,2.0934532E1,3.368661E1,1.3057231E2,2.0515553E1,1.3171059E1,8.166463E0,1.2240585E2,6.720318E0,6.450741E0,2.111004E1,1.01295815E2],"tree_param":{"num_deleted":"0","num_feature":"5","num_nodes":"13","size_leaf_vector":"1"}},{"base_weights":[2.0718865E-2,-1.5953413E-1,5.8310963E-2,5.782453E-2,-3.4427887E-1,-5.3067114E-2,5.549267E-2],"categories":[],"categories_nodes":[],"categories_segments":[],"categories_sizes":[],"default_left":[0,0,0,0,0,0,0],"id":52,"left_children":[1,3,-1,-1,5,-1,-1],"loss_changes":[1.7313051E1,1.7839632E1,0E0,0E0,1.7747526E1,0E0,0E0],"parents":[2147483647,0,0,1,1,4,4],"right_children":[2,4,-1,-1,6,-1,-1],"split_conditions":[5E1,5.6E0,5.8310963E-2,5.782453E-2,7.4E0,-5.3067114E-2,5.549267E-2],"split_indices":[1,0,0,0,0,0,0],"split_type":[0,0,0,0,0,0,0],"sum_hessian":[1.6886859E2,1.2842361E2,4.044498E1,2.5291576E1,1.0313204E2,8.576421E1,1.7367828E1],"tree_param":{"num_deleted":"0","num_feature":"5","num_nodes":"7","size_leaf_vector":"1"}},{"base_weights":[2.5943153E-2,2.005525E-1,-2.8871763E-1,2.4969494E-1,-4.8283085E-2,6.065727E-4,-5.3335108E-2,4.5935494E-1,1.17571704E-1,1.6112146E-1,-4.813515E-2,6.869379E-2,1.830408E-2,-5.8128636E-2,2.264045E-2,-4.851969E-2,2.9390564E-2],"categories":[],"categories_nodes":[],"categories_segments":[],"categories_sizes":[],"default_left":[0,0,0,0,0,0,0,0,0,0,0,0,0,0,0,0,0],"id":53,"left_children":[1,3,5,7,-1,9,-1,11,13,15,-1,-1,-1,-1,-1,-1,-1],"loss_changes":[1.1553786E1,4.6594296E0,5.314416E0,3.456964E0,0E0,2.815935E0,0E0,2.933714E0,6.1473465E0,2.485753E0,0E0,0E0,0E0,0E0,0E0,0E0,0E0],"parents":[2147483647,0,0,1,1,2,2,3,3,5,5,7,7,8,8,9,9],"right_children":[2,4,6,8,-1,10,-1,12,14,16,-1,-1,-1,-1,-1,-1,-1],"split_conditions":[1E0,5E1,1E0,2.48E2,-4.8283085E-2,7.4E0,-5.3335108E-2,6.8E0,2.55E2,5.6E0,-4.813515E-2,6.869379E-2,1.830408E-2,-5.8128636E-2,2.264045E-2,-4.851969E-2,2.9390564E-2],"split_indices":[3,1,2,4,0,0,0,0,4,0,0,0,0,0,0,0,0],"split_type":[0,0,0,0,0,0,0,0,0,0,0,0,0,0,0,0,0],"sum_hessian":[2.0823398E2,1.3415324E2,7.4080734E1,1.2574545E2,8.407801E0,3.4397205E1,3.968353E1,4.7652027E1,7.809342E1,2.6302814E1,8.09439E0,2.5315298E1,2.233673E1,9.937801E0,6.8155624E1,4.0305157E0,2.2272299E1],"tree_param":{"num_deleted":"0","num_feature":"5","num_nodes":"17","size_leaf_vector":"1"}},{"base_weights":[-4.3619126E-2,1.7698029E-2,-5.1002886E-2,-3.7639192E-1,1.320974E-1,-5.108276E-2,-1.9003707E-1,5.9188396E-1,3.6869228E-2,2.045598E-2,-5.50072E-2,-4.2861663E-2,7.612886E-2,-1.2470602E-2,3.2425724E-2],"categories":[],"categories_nodes":[],"categories_segments":[],"categories_sizes":[],"default_left":[0,0,0,0,0,0,0,0,0,0,0,0,0,0,0],"id":54,"left_children":[1,3,-1,5,7,-1,9,11,13,-1,-1,-1,-1,-1,-1],"loss_changes":[5.1537075E0,7.261097E0,0E0,8.109946E-1,5.4385195E0,0E0,2.496776E0,4.0139318E0,4.887218E0,0E0,0E0,0E0,0E0,0E0,0E0],"parents":[2147483647,0,0,1,1,3,3,4,4,6,6,7,7,8,8],"right_children":[2,4,-1,6,8,-1,10,12,14,-1,-1,-1,-1,-1,-1],"split_conditions":[7.4E0,6.6E0,-5.1002886E-2,1E0,3.8E1,-5.108276E-2,4E1,2.47E2,1E0,2.045598E-2,-5.50072E-2,-4.2861663E-2,7.612886E-2,-1.2470602E-2,3.2425724E-2],"split_indices":[0,0,0,2,1,0,1,4,3,0,0,0,0,0,0],"split_type":[0,0,0,0,0,0,0,0,0,0,0,0,0,0,0],"sum_hessian":[1.7889075E2,1.589555E2,1.9935236E1,3.5246395E1,1.2370911E2,1.9463991E1,1.5782404E1,2.0330875E1,1.03378235E2,7.7358146E0,8.04659E0,2.6766286E0,1.7654247E1,6.6536285E1,3.6841953E1],"tree_param":{"num_deleted":"0","num_feature":"5","num_nodes":"15","size_leaf_vector":"1"}},{"base_weights":[1.7403195E-2,-1.5856373E-1,5.739307E-2,5.6829304E-2,-3.3943313E-1,-5.251005E-2,5.4787368E-2],"categories":[],"categories_nodes":[],"categories_segments":[],"categories_sizes":[],"default_left":[0,0,0,0,0,0,0],"id":55,"left_children":[1,3,-1,-1,5,-1,-1],"loss_changes":[1.5740902E1,1.6258009E1,0E0,0E0,1.651112E1,0E0,0E0],"parents":[2147483647,0,0,1,1,4,4],"right_children":[2,4,-1,-1,6,-1,-1],"split_conditions":[5E1,5.6E0,5.739307E-2,5.6829304E-2,7.4E0,-5.251005E-2,5.4787368E-2],"split_indices":[1,0,0,0,0,0,0],"split_type":[0,0,0,0,0,0,0],"sum_hessian":[1.5880627E2,1.21199585E2,3.7606686E1,2.3722872E1,9.747671E1,8.094692E1,1.6529785E1],"tree_param":{"num_deleted":"0","num_feature":"5","num_nodes":"7","size_leaf_vector":"1"}},{"base_weights":[2.513507E-2,1.902661E-1,-2.8046244E-1,2.3568809E-1,-4.7505286E-2,3.988497E-3,-5.291443E-2,4.3837196E-1,1.0895682E-1,1.4612526E-1,-5.0589968E-2,6.7191675E-2,1.6360914E-2,-5.5843472E-2,2.1301918E-2,-4.7085732E-2,2.6416391E-2],"categories":[],"categories_nodes":[],"categories_segments":[],"categories_sizes":[],"default_left":[0,0,0,0,0,0,0,0,0,0,0,0,0,0,0,0,0],"id":56,"left_children":[1,3,5,7,-1,9,-1,11,13,15,-1,-1,-1,-1,-1,-1,-1],"loss_changes":[1.022342E1,4.08382E0,5.031677E0,3.1296358E0,0E0,2.5494943E0,0E0,2.9226198E0,5.497279E0,2.126258E0,0E0,0E0,0E0,0E0,0E0,0E0,0E0],"parents":[2147483647,0,0,1,1,2,2,3,3,5,5,7,7,8,8,9,9],"right_children":[2,4,6,8,-1,10,-1,12,14,16,-1,-1,-1,-1,-1,-1,-1],"split_conditions":[1E0,5E1,1E0,2.48E2,-4.7505286E-2,5E1,-5.291443E-2,6.8E0,2.55E2,5.6E0,-5.0589968E-2,6.7191675E-2,1.6360914E-2,-5.5843472E-2,2.1301918E-2,-4.7085732E-2,2.6416391E-2],"split_indices":[3,1,2,4,0,1,0,0,4,0,0,0,0,0,0,0,0],"split_type":[0,0,0,0,0,0,0,0,0,0,0,0,0,0,0,0,0],"sum_hessian":[2.0053241E2,1.3043088E2,7.010154E1,1.2269979E2,7.7310834E0,3.3158108E1,3.6943428E1,4.6258526E1,7.644127E1,2.6487776E1,6.6703324E0,2.4223463E1,2.2035063E1,9.722273E0,6.6718994E1,3.7737184E0,2.2714056E1],"tree_param":{"num_deleted":"0","num_feature":"5","num_nodes":"17","size_leaf_vector":"1"}},{"base_weights":[-3.954502E-2,-3.736589E-1,4.174409E-2,-5.065858E-2,-1.8888639E-1,1.2778501E-1,-5.0454475E-2,1.900267E-1,-5.4863404E-2,5.750543E-1,3.6983475E-2,-3.4336574E-2,3.884865E-2,-4.204641E-2,7.407023E-2,-1.1116834E-2,3.0413304E-2],"categories":[],"categories_nodes":[],"categories_segments":[],"categories_sizes":[],"default_left":[0,0,0,0,0,0,0,0,0,0,0,0,0,0,0,0,0],"id":57,"left_children":[1,3,5,-1,7,9,-1,11,-1,13,15,-1,-1,-1,-1,-1,-1],"loss_changes":[4.7126117E0,7.379861E-1,6.6447887E0,0E0,2.2574973E0,4.9231596E0,0E0,1.0263982E0,0E0,3.6880994E0,4.081499E0,0E0,0E0,0E0,0E0,0E0,0E0],"parents":[2147483647,0,0,1,1,2,2,4,4,5,5,7,7,9,9,10,10],"right_children":[2,4,6,-1,8,10,-1,12,-1,14,16,-1,-1,-1,-1,-1,-1],"split_conditions":[6.6E0,1E0,7.4E0,-5.065858E-2,4E1,3.8E1,-5.0454475E-2,4.7E0,-5.4863404E-2,2.47E2,1E0,-3.4336574E-2,3.884865E-2,-4.204641E-2,7.407023E-2,-1.1116834E-2,3.0413304E-2],"split_indices":[0,2,0,0,1,1,0,0,0,4,3,0,0,0,0,0,0],"split_type":[0,0,0,0,0,0,0,0,0,0,0,0,0,0,0,0,0],"sum_hessian":[1.7193982E2,3.2942627E1,1.389972E2,1.8146328E1,1.4796297E1,1.2074573E2,1.8251463E1,7.4359636E0,7.360334E0,1.9476332E1,1.01269394E2,1.818446E0,5.6175175E0,2.5589776E0,1.6917355E1,6.5518814E1,3.575058E1],"tree_param":{"num_deleted":"0","num_feature":"5","num_nodes":"17","size_leaf_vector":"1"}},{"base_weights":[1.4206975E-2,-1.5803586E-1,5.6506988E-2,5.5947084E-2,-3.366302E-1,-5.1948883E-2,5.395115E-2],"categories":[],"categories_nodes":[],"categories_segments":[],"categories_sizes":[],"default_left":[0,0,0,0,0,0,0],"id":58,"left_children":[1,3,-1,-1,5,-1,-1],"loss_changes":[1.4311637E1,1.4921075E1,0E0,0E0,1.5128823E1,0E0,0E0],"parents":[2147483647,0,0,1,1,4,4],"right_children":[2,4,-1,-1,6,-1,-1],"split_conditions":[5E1,5.6E0,5.6506988E-2,5.5947084E-2,7.4E0,-5.1948883E-2,5.395115E-2],"split_indices":[1,0,0,0,0,0,0],"split_type":[0,0,0,0,0,0,0],"sum_hessian":[1.4889468E2,1.1397142E2,3.492327E1,2.2289642E1,9.168177E1,7.6187775E1,1.54939995E1],"tree_param":{"num_deleted":"0","num_feature":"5","num_nodes":"7","size_leaf_vector":"1"}},{"base_weights":[2.429422E-2,1.7856811E-1,-2.686113E-1,2.2049777E-1,-4.6725687E-2,1.1532692E-2,-5.2464325E-2,4.168575E-1,9.876892E-2,1.6032922E-1,-4.6882804E-2,6.5569356E-2,1.4547378E-2,-5.3764053E-2,1.977393E-2,-7.4155442E-3,4.990909E-2],"categories":[],"categories_nodes":[],"categories_segments":[],"categories_sizes":[],"default_left":[0,0,0,0,0,0,0,0,0,0,0,0,0,0,0,0,0],"id":59,"left_children":[1,3,5,7,-1,9,-1,11,13,15,-1,-1,-1,-1,-1,-1,-1],"loss_changes":[8.807436E0,3.5575633E0,4.8314075E0,2.8384576E0,0E0,2.4412599E0,0E0,2.8727584E0,4.873073E0,2.1038547E0,0E0,0E0,0E0,0E0,0E0,0E0,0E0],"parents":[2147483647,0,0,1,1,2,2,3,3,5,5,7,7,8,8,9,9],"right_children":[2,4,6,8,-1,10,-1,12,14,16,-1,-1,-1,-1,-1,-1,-1],"split_conditions":[1E0,5E1,1E0,2.48E2,-4.6725687E-2,7.4E0,-5.2464325E-2,6.8E0,2.55E2,6.7E0,-4.6882804E-2,6.5569356E-2,1.4547378E-2,-5.3764053E-2,1.977393E-2,-7.4155442E-3,4.990909E-2],"split_indices":[3,1,2,4,0,0,0,0,4,0,0,0,0,0,0,0,0],"split_type":[0,0,0,0,0,0,0,0,0,0,0,0,0,0,0,0,0],"sum_hessian":[1.9284647E2,1.2657142E2,6.627505E1,1.1947329E2,7.0981264E0,3.2103317E1,3.417173E1,4.479324E1,7.468005E1,2.5019506E1,7.08381E0,2.307211E1,2.1721128E1,9.454221E0,6.522583E1,1.5246946E1,9.77256E0],"tree_param":{"num_deleted":"0","num_feature":"5","num_nodes":"17","size_leaf_vector":"1"}},{"base_weights":[-3.6067467E-2,-3.7321272E-1,4.2934574E-2,-5.0251212E-2,-1.9049054E-1,1.2344366E-1,-4.9929492E-2,1.7851724E-1,-5.4764327E-2,5.6138426E-1,3.6554657E-2,-3.3261955E-2,3.6807094E-2,-4.121158E-2,7.2237186E-2,-9.8442985E-3,2.8377777E-2],"categories":[],"categories_nodes":[],"categories_segments":[],"categories_sizes":[],"default_left":[0,0,0,0,0,0,0,0,0,0,0,0,0,0,0,0,0],"id":60,"left_children":[1,3,5,-1,7,9,-1,11,-1,13,15,-1,-1,-1,-1,-1,-1],"loss_changes":[4.4418955E0,6.51999E-1,5.9775934E0,0E0,2.0384548E0,4.500072E0,0E0,8.9720666E-1,0E0,3.369195E0,3.3721077E0,0E0,0E0,0E0,0E0,0E0,0E0],"parents":[2147483647,0,0,1,1,2,2,4,4,5,5,7,7,9,9,10,10],"right_children":[2,4,6,-1,8,10,-1,12,-1,14,16,-1,-1,-1,-1,-1,-1],"split_conditions":[6.6E0,1E0,7.4E0,-5.0251212E-2,4E1,3.8E1,-4.9929492E-2,4.7E0,-5.4764327E-2,2.47E2,1E0,-3.3261955E-2,3.6807094E-2,-4.121158E-2,7.2237186E-2,-9.8442985E-3,2.8377777E-2],"split_indices":[0,2,0,0,1,1,0,0,0,4,3,0,0,0,0,0,0],"split_type":[0,0,0,0,0,0,0,0,0,0,0,0,0,0,0,0,0],"sum_hessian":[1.651665E2,3.0648476E1,1.3451802E2,1.692308E1,1.3725393E1,1.1779971E2,1.6718313E1,6.9966583E0,6.7287354E0,1.8598427E1,9.920129E1,1.6885865E0,5.3080716E0,2.4178212E0,1.6180605E1,6.455335E1,3.4647934E1],"tree_param":{"num_deleted":"0","num_feature":"5","num_nodes":"17","size_leaf_vector":"1"}},{"base_weights":[1.1053688E-2,-1.5873604E-1,5.5811204E-2,5.5193592E-2,-3.3610797E-1,-5.1413864E-1,5.3001035E-2,-4.0077627E-2,-5.42363E-2],"categories":[],"categories_nodes":[],"categories_segments":[],"categories_sizes":[],"default_left":[0,0,0,0,0,0,0,0,0],"id":61,"left_children":[1,3,-1,-1,5,7,-1,-1,-1],"loss_changes":[1.3131631E1,1.3791752E1,0E0,0E0,1.368793E1,1.5165329E-2,0E0,0E0,0E0],"parents":[2147483647,0,0,1,1,4,4,5,5],"right_children":[2,4,-1,-1,6,8,-1,-1,-1],"split_conditions":[5E1,5.6E0,5.5811204E-2,5.5193592E-2,7.4E0,6.6E0,5.3001035E-2,-4.0077627E-2,-5.42363E-2],"split_indices":[1,0,0,0,0,0,0,0,0],"split_type":[0,0,0,0,0,0,0,0,0],"sum_hessian":[1.3942154E2,1.0694043E2,3.2481113E1,2.093778E1,8.6002655E1,7.1676025E1,1.4326625E1,1.7318089E1,5.435794E1],"tree_param":{"num_deleted":"0","num_feature":"5","num_nodes":"9","size_leaf_vector":"1"}},{"base_weights":[2.3835571E-2,1.6758992E-1,-2.5695062E-1,2.0633158E-1,-4.5949396E-2,2.000872E-2,-5.203407E-2,3.9656067E-1,8.940592E-2,1.616737E-1,-4.6109606E-2,6.4105086E-2,1.2861854E-2,2.6703179E-2,-2.4095139E-2,-4.4925865E-2,2.7612198E-2],"categories":[],"categories_nodes":[],"categories_segments":[],"categories_sizes":[],"default_left":[0,0,0,0,0,0,0,0,0,0,0,0,0,0,0,0,0],"id":62,"left_children":[1,3,5,7,-1,9,-1,11,13,15,-1,-1,-1,-1,-1,-1,-1],"loss_changes":[7.563696E0,3.1032796E0,4.6415076E0,2.5740395E0,0E0,2.24927E0,0E0,2.8241453E0,4.4037304E0,1.899339E0,0E0,0E0,0E0,0E0,0E0,0E0,0E0],"parents":[2147483647,0,0,1,1,2,2,3,3,5,5,7,7,8,8,9,9],"right_children":[2,4,6,8,-1,10,-1,12,14,16,-1,-1,-1,-1,-1,-1,-1],"split_conditions":[1E0,5E1,1E0,2.48E2,-4.5949396E-2,7.4E0,-5.203407E-2,6.8E0,6.7E0,5.6E0,-4.6109606E-2,6.4105086E-2,1.2861854E-2,2.6703179E-2,-2.4095139E-2,-4.4925865E-2,2.7612198E-2],"split_indices":[3,1,2,4,0,0,0,0,0,0,0,0,0,0,0,0,0],"split_type":[0,0,0,0,0,0,0,0,0,0,0,0,0,0,0,0,0],"sum_hessian":[1.8531924E2,1.2283463E2,6.248461E1,1.1631931E2,6.5153174E0,3.0908163E1,3.1576448E1,4.336927E1,7.295004E1,2.4390228E1,6.5179353E0,2.1948938E1,2.1420332E1,4.756635E1,2.5383692E1,3.386649E0,2.1003578E1],"tree_param":{"num_deleted":"0","num_feature":"5","num_nodes":"17","size_leaf_vector":"1"}},{"base_weights":[-3.248334E-2,-3.7111425E-1,4.3571223E-2,-4.980563E-2,-1.8998554E-1,1.1862284E-1,-4.9415153E-2,1.705659E-1,-5.4687053E-2,-5.6778677E-2,1.7035602E-1,-3.219706E-2,3.5192158E-2,6.898882E-2,7.514818E-3],"categories":[],"categories_nodes":[],"categories_segments":[],"categories_sizes":[],"default_left":[0,0,0,0,0,0,0,0,0,0,0,0,0,0,0],"id":63,"left_children":[1,3,5,-1,7,9,-1,11,-1,-1,13,-1,-1,-1,-1],"loss_changes":[4.1372786E0,5.82571E-1,5.368106E0,0E0,1.8629116E0,4.2249904E0,0E0,7.9248255E-1,0E0,0E0,5.333611E0,0E0,0E0,0E0,0E0],"parents":[2147483647,0,0,1,1,2,2,4,4,5,5,7,7,10,10],"right_children":[2,4,6,-1,8,10,-1,12,-1,-1,14,-1,-1,-1,-1],"split_conditions":[6.6E0,1E0,7.4E0,-4.980563E-2,4E1,2.45E2,-4.9415153E-2,4.7E0,-5.4687053E-2,-5.6778677E-2,3.8E1,-3.219706E-2,3.5192158E-2,6.898882E-2,7.514818E-3],"split_indices":[0,2,0,0,1,4,0,0,0,0,1,0,0,0,0],"split_type":[0,0,0,0,0,0,0,0,0,0,0,0,0,0,0],"sum_hessian":[1.5901555E2,2.8452404E1,1.3056314E2,1.5699704E1,1.27527E1,1.1525592E2,1.5307225E1,6.6034646E0,6.149235E0,7.3786554E0,1.07877266E2,1.5684423E0,5.0350223E0,1.5740117E1,9.2137146E1],"tree_param":{"num_deleted":"0","num_feature":"5","num_nodes":"15","size_leaf_vector":"1"}},{"base_weights":[7.4701216E-3,-1.603298E-1,5.520534E-2,5.443255E-2,-3.3596212E-1,-5.090157E-1,5.2111335E-2,-3.904252E-2,-5.3858098E-2],"categories":[],"categories_nodes":[],"categories_segments":[],"categories_sizes":[],"default_left":[0,0,0,0,0,0,0,0,0],"id":64,"left_children":[1,3,-1,-1,5,7,-1,-1,-1],"loss_changes":[1.2116498E1,1.27316265E1,0E0,0E0,1.2395438E1,3.0073166E-2,0E0,0E0,0E0],"parents":[2147483647,0,0,1,1,4,4,5,5],"right_children":[2,4,-1,-1,6,8,-1,-1,-1],"split_conditions":[5E1,5.6E0,5.520534E-2,5.443255E-2,7.4E0,6.6E0,5.2111335E-2,-3.904252E-2,-5.3858098E-2],"split_indices":[1,0,0,0,0,0,0,0,0],"split_type":[0,0,0,0,0,0,0,0,0],"sum_hessian":[1.3062456E2,1.0039568E2,3.0228865E1,1.961181E1,8.0783875E1,6.75507E1,1.3233176E1,1.6314898E1,5.12358E1],"tree_param":{"num_deleted":"0","num_feature":"5","num_nodes":"9","size_leaf_vector":"1"}},{"base_weights":[2.3467805E-2,1.5740025E-1,-2.4575263E-1,1.9313379E-1,-4.5171145E-2,2.675329E-2,-5.1628023E-2,-4.5374606E-2,2.244082E-1,1.5757926E-1,-4.8348524E-2,5.233837E-2,1.33178225E-2,-1.6443102E-2,4.250484E-2],"categories":[],"categories_nodes":[],"categories_segments":[],"categories_sizes":[],"default_left":[0,0,0,0,0,0,0,0,0,0,0,0,0,0,0],"id":65,"left_children":[1,3,5,7,-1,9,-1,-1,11,13,-1,-1,-1,-1,-1],"loss_changes":[6.514231E0,2.71083E0,4.4409084E0,2.4194365E0,0E0,2.1366768E0,0E0,0E0,2.9290953E0,2.2508602E0,0E0,0E0,0E0,0E0,0E0],"parents":[2147483647,0,0,1,1,2,2,3,3,5,5,8,8,9,9],"right_children":[2,4,6,8,-1,10,-1,-1,12,14,-1,-1,-1,-1,-1],"split_conditions":[1E0,5E1,1E0,5.5E0,-4.5171145E-2,5E1,-5.1628023E-2,-4.5374606E-2,6.6E0,4.5E1,-4.8348524E-2,5.233837E-2,1.33178225E-2,-1.6443102E-2,4.250484E-2],"split_indices":[3,1,2,0,0,1,0,0,0,1,0,0,0,0,0],"split_type":[0,0,0,0,0,0,0,0,0,0,0,0,0,0,0],"sum_hessian":[1.7859026E2,1.195377E2,5.905256E1,1.135587E2,5.978996E0,2.9867624E1,2.9184937E1,4.614007E0,1.08944695E2,2.432247E1,5.545154E0,2.4363749E1,8.458094E1,1.1210821E1,1.3111649E1],"tree_param":{"num_deleted":"0","num_feature":"5","num_nodes":"15","size_leaf_vector":"1"}},{"base_weights":[-2.9398097E-2,-3.6781648E-1,4.2633813E-2,-6.3007034E-2,-2.623694E-1,1.119569E-1,-4.8905015E-2,-4.8074882E-2,-1.8761383E-2,-5.5861454E-2,1.6187675E-1,-4.435512E-2,5.0166942E-2,6.7588754E-2,6.9952495E-3],"categories":[],"categories_nodes":[],"categories_segments":[],"categories_sizes":[],"default_left":[0,0,0,0,0,0,0,0,0,0,0,0,0,0,0],"id":66,"left_children":[1,3,5,-1,7,9,-1,-1,11,-1,13,-1,-1,-1,-1],"loss_changes":[3.7878509E0,5.8854985E-1,4.790373E0,0E0,1.1164836E0,3.9225166E0,0E0,0E0,2.6634314E0,0E0,5.0236187E0,0E0,0E0,0E0,0E0],"parents":[2147483647,0,0,1,1,2,2,4,4,5,5,8,8,10,10],"right_children":[2,4,6,-1,8,10,-1,-1,12,-1,14,-1,-1,-1,-1],"split_conditions":[6.6E0,2.53E2,7.4E0,-6.3007034E-2,1E0,2.45E2,-4.8905015E-2,-4.8074882E-2,6.5E0,-5.5861454E-2,3.8E1,-4.435512E-2,5.0166942E-2,6.7588754E-2,6.9952495E-3],"split_indices":[0,4,0,0,2,4,0,0,0,0,1,0,0,0,0],"split_type":[0,0,0,0,0,0,0,0,0,0,0,0,0,0,0],"sum_hessian":[1.5374347E2,2.6260551E1,1.2748291E2,6.1040783E0,2.0156473E1,1.1347678E2,1.4006129E1,1.011529E1,1.00411825E1,7.1562953E0,1.0632049E2,5.6099286E0,4.431254E0,1.5165764E1,9.1154724E1],"tree_param":{"num_deleted":"0","num_feature":"5","num_nodes":"15","size_leaf_vector":"1"}},{"base_weights":[3.711561E-3,-1.613673E-1,5.4508667E-2,5.375073E-2,-3.3474338E-1,-5.038197E-1,5.1334035E-2,-3.7770342E-2,-5.3495534E-2],"categories":[],"categories_nodes":[],"categories_segments":[],"categories_sizes":[],"default_left":[0,0,0,0,0,0,0,0,0],"id":67,"left_children":[1,3,-1,-1,5,7,-1,-1,-1],"loss_changes":[1.1104403E1,1.17194395E1,0E0,0E0,1.1288528E1,5.1771164E-2,0E0,0E0,0E0],"parents":[2147483647,0,0,1,1,4,4,5,5],"right_children":[2,4,-1,-1,6,8,-1,-1,-1],"split_conditions":[5E1,5.6E0,5.4508667E-2,5.375073E-2,7.4E0,6.6E0,5.1334035E-2,-3.7770342E-2,-5.3495534E-2],"split_indices":[1,0,0,0,0,0,0,0,0],"split_type":[0,0,0,0,0,0,0,0,0],"sum_hessian":[1.2226837E2,9.423553E1,2.8032846E1,1.8313606E1,7.592192E1,6.364034E1,1.2281581E1,1.5200598E1,4.8439743E1],"tree_param":{"num_deleted":"0","num_feature":"5","num_nodes":"9","size_leaf_vector":"1"}},{"base_weights":[2.3611363E-2,1.5037112E-1,-2.3694935E-1,1.835168E-1,-4.4383746E-2,2.993046E-2,-5.1283635E-2,3.657494E-1,7.2019644E-2,1.5287225E-1,-4.725731E-2,6.24892E-2,9.59036E-3,2.4950363E-2,-2.4499102E-2,-1.6235637E-2,4.1168597E-2],"categories":[],"categories_nodes":[],"categories_segments":[],"categories_sizes":[],"default_left":[0,0,0,0,0,0,0,0,0,0,0,0,0,0,0,0,0],"id":68,"left_children":[1,3,5,7,-1,9,-1,11,13,15,-1,-1,-1,-1,-1,-1,-1],"loss_changes":[5.75921E0,2.3895524E0,4.219692E0,2.2433367E0,0E0,1.9237287E0,0E0,2.888061E0,4.030475E0,2.0929492E0,0E0,0E0,0E0,0E0,0E0,0E0,0E0],"parents":[2147483647,0,0,1,1,2,2,3,3,5,5,7,7,8,8,9,9],"right_children":[2,4,6,8,-1,10,-1,12,14,16,-1,-1,-1,-1,-1,-1,-1],"split_conditions":[1E0,5E1,1E0,2.48E2,-4.4383746E-2,5E1,-5.1283635E-2,6.8E0,6.7E0,4.5E1,-4.725731E-2,6.24892E-2,9.59036E-3,2.4950363E-2,-2.4499102E-2,-1.6235637E-2,4.1168597E-2],"split_indices":[3,1,2,4,0,1,0,0,0,1,0,0,0,0,0,0,0],"split_type":[0,0,0,0,0,0,0,0,0,0,0,0,0,0,0,0,0],"sum_hessian":[1.7229156E2,1.16189575E2,5.6101986E1,1.1070545E2,5.484127E0,2.8969648E1,2.7132336E1,4.1157192E1,6.9548256E1,2.383419E1,5.1354594E0,2.0323788E1,2.0833405E1,4.472252E1,2.4825739E1,1.0913956E1,1.2920235E1],"tree_param":{"num_deleted":"0","num_feature":"5","num_nodes":"17","size_leaf_vector":"1"}},{"base_weights":[-2.6751328E-2,-3.669077E-1,4.217941E-2,-6.3553415E-2,-2.5907132E-1,1.0636959E-1,-4.8397716E-2,-4.759905E-2,-1.3846401E-2,-5.5026095E-2,1.5474704E-1,-4.3591984E-2,4.919428E-2,6.625826E-2,6.6352175E-3],"categories":[],"categories_nodes":[],"categories_segments":[],"categories_sizes":[],"default_left":[0,0,0,0,0,0,0,0,0,0,0,0,0,0,0],"id":69,"left_children":[1,3,5,-1,7,9,-1,-1,11,-1,13,-1,-1,-1,-1],"loss_changes":[3.525889E0,5.691035E-1,4.2862606E0,0E0,1.0446552E0,3.6611176E0,0E0,0E0,2.4145727E0,0E0,4.697665E0,0E0,0E0,0E0,0E0],"parents":[2147483647,0,0,1,1,2,2,4,4,5,5,8,8,10,10],"right_children":[2,4,6,-1,8,10,-1,-1,12,-1,14,-1,-1,-1,-1],"split_conditions":[6.6E0,2.53E2,7.4E0,-6.3553415E-2,1E0,2.45E2,-4.8397716E-2,-4.759905E-2,6.5E0,-5.5026095E-2,3.8E1,-4.3591984E-2,4.919428E-2,6.625826E-2,6.6352175E-3],"split_indices":[0,4,0,0,2,4,0,0,0,0,1,0,0,0,0],"split_type":[0,0,0,0,0,0,0,0,0,0,0,0,0,0,0],"sum_hessian":[1.4871548E2,2.4330006E1,1.24385475E2,5.5675125E0,1.8762493E1,1.11571754E2,1.2813724E1,9.456499E0,9.305994E0,6.944138E0,1.0462762E2,5.148112E0,4.157882E0,1.4548664E1,9.007895E1],"tree_param":{"num_deleted":"0","num_feature":"5","num_nodes":"15","size_leaf_vector":"1"}},{"base_weights":[1.3130398E-4,-1.6153362E-1,5.3861525E-2,5.325613E-2,-3.3443257E-1,-4.9920326E-1,5.0593007E-2,-3.6703717E-2,-5.318093E-2],"categories":[],"categories_nodes":[],"categories_segments":[],"categories_sizes":[],"default_left":[0,0,0,0,0,0,0,0,0],"id":70,"left_children":[1,3,-1,-1,5,7,-1,-1,-1],"loss_changes":[1.0173767E1,1.0964837E1,0E0,0E0,1.0301489E1,6.845379E-2,0E0,0E0,0E0],"parents":[2147483647,0,0,1,1,4,4,5,5],"right_children":[2,4,-1,-1,6,8,-1,-1,-1],"split_conditions":[5E1,5.6E0,5.3861525E-2,5.325613E-2,7.4E0,6.6E0,5.0593007E-2,-3.6703717E-2,-5.318093E-2],"split_indices":[1,0,0,0,0,0,0,0,0],"split_type":[0,0,0,0,0,0,0,0,0],"sum_hessian":[1.14867935E2,8.888322E1,2.5984713E1,1.7310562E1,7.1572655E1,6.0179226E1,1.1393431E1,1.43340225E1,4.5845203E1],"tree_param":{"num_deleted":"0","num_feature":"5","num_nodes":"9","size_leaf_vector":"1"}},{"base_weights":[2.3795096E-2,1.4337797E-1,-2.2833118E-1,1.740256E-1,-4.3589067E-2,3.284111E-2,-5.095413E-2,-4.4080988E-2,2.0267616E-1,1.5462407E-1,-4.404844E-2,5.0606627E-2,1.1921611E-2,-4.343854E-2,2.6418036E-2],"categories":[],"categories_nodes":[],"categories_segments":[],"categories_sizes":[],"default_left":[0,0,0,0,0,0,0,0,0,0,0,0,0,0,0],"id":71,"left_children":[1,3,5,7,-1,9,-1,-1,11,13,-1,-1,-1,-1,-1],"loss_changes":[5.088172E0,2.1058853E0,4.0068865E0,2.0149865E0,0E0,1.7459528E0,0E0,0E0,2.601759E0,1.6564425E0,0E0,0E0,0E0,0E0,0E0],"parents":[2147483647,0,0,1,1,2,2,3,3,5,5,8,8,9,9],"right_children":[2,4,6,8,-1,10,-1,-1,12,14,-1,-1,-1,-1,-1],"split_conditions":[1E0,5E1,1E0,5.5E0,-4.3589067E-2,7.4E0,-5.095413E-2,-4.4080988E-2,6.6E0,5.6E0,-4.404844E-2,5.0606627E-2,1.1921611E-2,-4.343854E-2,2.6418036E-2],"split_indices":[3,1,2,0,0,0,0,0,0,0,0,0,0,0,0],"split_type":[0,0,0,0,0,0,0,0,0,0,0,0,0,0,0],"sum_hessian":[1.6667618E2,1.133472E2,5.3328976E1,1.08316055E2,5.031148E0,2.8107504E1,2.5221472E1,4.182153E0,1.04133896E2,2.289112E1,5.2163835E0,2.1373692E1,8.276021E1,3.1250272E0,1.9766094E1],"tree_param":{"num_deleted":"0","num_feature":"5","num_nodes":"15","size_leaf_vector":"1"}},{"base_weights":[-2.3581391E-2,-3.6486223E-1,4.1807216E-2,-6.409997E-2,-2.5301135E-1,1.0118769E-1,-4.7891304E-2,-4.6995353E-2,-8.24413E-3,5.1645464E-1,2.6439283E-2,-4.2815126E-2,4.837746E-2,-3.8975865E-2,6.729897E-2,-1.0715585E-2,2.05821E-2],"categories":[],"categories_nodes":[],"categories_segments":[],"categories_sizes":[],"default_left":[0,0,0,0,0,0,0,0,0,0,0,0,0,0,0,0,0],"id":72,"left_children":[1,3,5,-1,7,9,-1,-1,11,13,15,-1,-1,-1,-1,-1,-1],"loss_changes":[3.2518883E0,5.6128097E-1,3.839756E0,0E0,9.690795E-1,3.4283805E0,0E0,0E0,2.1961303E0,2.654148E0,2.2993343E0,0E0,0E0,0E0,0E0,0E0,0E0],"parents":[2147483647,0,0,1,1,2,2,4,4,5,5,8,8,9,9,10,10],"right_children":[2,4,6,-1,8,10,-1,-1,12,14,16,-1,-1,-1,-1,-1,-1],"split_conditions":[6.6E0,2.53E2,7.4E0,-6.409997E-2,1E0,3.8E1,-4.7891304E-2,-4.6995353E-2,6.5E0,2.47E2,1E0,-4.2815126E-2,4.837746E-2,-3.8975865E-2,6.729897E-2,-1.0715585E-2,2.05821E-2],"split_indices":[0,4,0,0,2,1,0,0,0,4,2,0,0,0,0,0,0],"split_type":[0,0,0,0,0,0,0,0,0,0,0,0,0,0,0,0,0],"sum_hessian":[1.440373E2,2.242343E1,1.2161385E2,5.1004934E0,1.7322937E1,1.0988838E2,1.1725473E1,8.69573E0,8.627206E0,1.586129E1,9.402709E1,4.724742E0,3.902464E0,2.1167994E0,1.3744491E1,5.4122112E1,3.990498E1],"tree_param":{"num_deleted":"0","num_feature":"5","num_nodes":"17","size_leaf_vector":"1"}},{"base_weights":[-3.8656471E-3,-1.6463359E-1,5.3380854E-2,5.246392E-2,-3.3406356E-1,-4.9422714E-1,4.982018E-2,-3.5378322E-2,-5.285896E-2],"categories":[],"categories_nodes":[],"categories_segments":[],"categories_sizes":[],"default_left":[0,0,0,0,0,0,0,0,0],"id":73,"left_children":[1,3,-1,-1,5,7,-1,-1,-1],"loss_changes":[9.456401E0,1.0008184E1,0E0,0E0,9.336636E0,9.1415405E-2,0E0,0E0,0E0],"parents":[2147483647,0,0,1,1,4,4,5,5],"right_children":[2,4,-1,-1,6,8,-1,-1,-1],"split_conditions":[5E1,5.6E0,5.3380854E-2,5.246392E-2,7.4E0,6.6E0,4.982018E-2,-3.5378322E-2,-5.285896E-2],"split_indices":[1,0,0,0,0,0,0,0,0],"split_type":[0,0,0,0,0,0,0,0,0],"sum_hessian":[1.07380775E2,8.319789E1,2.4182886E1,1.6002054E1,6.719584E1,5.6692024E1,1.0503814E1,1.3364629E1,4.3327396E1],"tree_param":{"num_deleted":"0","num_feature":"5","num_nodes":"9","size_leaf_vector":"1"}},{"base_weights":[2.3707988E-2,1.3690645E-1,-2.207973E-1,1.6535474E-1,-4.2784195E-2,3.49271E-2,-5.063636E-2,3.3804125E-1,6.0220625E-2,1.4863537E-1,-4.572928E-2,6.126932E-2,6.544236E-3,-5.3133078E-2,1.5210326E-2,-1.7035924E-2,4.0589742E-2],"categories":[],"categories_nodes":[],"categories_segments":[],"categories_sizes":[],"default_left":[0,0,0,0,0,0,0,0,0,0,0,0,0,0,0,0,0],"id":74,"left_children":[1,3,5,7,-1,9,-1,11,13,15,-1,-1,-1,-1,-1,-1,-1],"loss_changes":[4.512191E0,1.8590055E0,3.7879086E0,1.916616E0,0E0,1.6447864E0,0E0,2.9664612E0,3.751422E0,2.0092185E0,0E0,0E0,0E0,0E0,0E0,0E0,0E0],"parents":[2147483647,0,0,1,1,2,2,3,3,5,5,7,7,8,8,9,9],"right_children":[2,4,6,8,-1,10,-1,12,14,16,-1,-1,-1,-1,-1,-1,-1],"split_conditions":[1E0,5E1,1E0,2.48E2,-4.2784195E-2,5E1,-5.063636E-2,6.8E0,2.55E2,4.5E1,-4.572928E-2,6.126932E-2,6.544236E-3,-5.3133078E-2,1.5210326E-2,-1.7035924E-2,4.0589742E-2],"split_indices":[3,1,2,4,0,1,0,0,4,1,0,0,0,0,0,0,0],"split_type":[0,0,0,0,0,0,0,0,0,0,0,0,0,0,0,0,0],"sum_hessian":[1.6093451E2,1.1030619E2,5.0628315E1,1.0568946E2,4.6167316E0,2.7172792E1,2.3455524E1,3.915714E1,6.653232E1,2.2640593E1,4.5321984E0,1.888366E1,2.0273481E1,8.301777E0,5.8230545E1,1.0258395E1,1.2382198E1],"tree_param":{"num_deleted":"0","num_feature":"5","num_nodes":"17","size_leaf_vector":"1"}},{"base_weights":[-2.1086486E-2,-3.658208E-1,4.22593E-2,-6.469828E-2,-2.5154504E-1,9.760075E-2,-4.737864E-2,-4.6564806E-2,-5.081254E-3,-5.4340165E-2,1.4505859E-1,-4.202476E-2,4.7157925E-2,6.369006E-2,6.370522E-3],"categories":[],"categories_nodes":[],"categories_segments":[],"categories_sizes":[],"default_left":[0,0,0,0,0,0,0,0,0,0,0,0,0,0,0],"id":75,"left_children":[1,3,5,-1,7,9,-1,-1,11,-1,13,-1,-1,-1,-1],"loss_changes":[3.0765243E0,5.397048E-1,3.4536448E0,0E0,9.042438E-1,3.3820577E0,0E0,0E0,1.9787983E0,0E0,4.036334E0,0E0,0E0,0E0,0E0],"parents":[2147483647,0,0,1,1,2,2,4,4,5,5,8,8,10,10],"right_children":[2,4,6,-1,8,10,-1,-1,12,-1,14,-1,-1,-1,-1],"split_conditions":[6.6E0,2.53E2,7.4E0,-6.469828E-2,1E0,2.45E2,-4.737864E-2,-4.6564806E-2,6.5E0,-5.4340165E-2,3.8E1,-4.202476E-2,4.7157925E-2,6.369006E-2,6.370522E-3],"split_indices":[0,4,0,0,2,4,0,0,0,0,1,0,0,0,0],"split_type":[0,0,0,0,0,0,0,0,0,0,0,0,0,0,0],"sum_hessian":[1.3917493E2,2.0862741E1,1.1831218E2,4.681896E0,1.6180845E1,1.07585434E2,1.0726743E1,8.182978E0,7.9978666E0,6.6958523E0,1.0088959E2,4.337927E0,3.6599398E0,1.3350002E1,8.753958E1],"tree_param":{"num_deleted":"0","num_feature":"5","num_nodes":"15","size_leaf_vector":"1"}},{"base_weights":[-6.9988463E-3,-1.6446117E-1,5.2791942E-2,5.2010693E-2,-3.334429E-1,-4.8961237E-1,4.912921E-2,-3.4435224E-2,-5.2552838E-2],"categories":[],"categories_nodes":[],"categories_segments":[],"categories_sizes":[],"default_left":[0,0,0,0,0,0,0,0,0],"id":76,"left_children":[1,3,-1,-1,5,7,-1,-1,-1],"loss_changes":[8.660696E0,9.358916E0,0E0,0E0,8.521489E0,1.03673935E-1,0E0,0E0,0E0],"parents":[2147483647,0,0,1,1,4,4,5,5],"right_children":[2,4,-1,-1,6,8,-1,-1,-1],"split_conditions":[5E1,5.6E0,5.2791942E-2,5.2010693E-2,7.4E0,6.6E0,4.912921E-2,-3.4435224E-2,-5.2552838E-2],"split_indices":[1,0,0,0,0,0,0,0,0],"split_type":[0,0,0,0,0,0,0,0,0],"sum_hessian":[1.0079186E2,7.8404655E1,2.2387201E1,1.511081E1,6.3293846E1,5.3558502E1,9.735347E0,1.2716221E1,4.084228E1],"tree_param":{"num_deleted":"0","num_feature":"5","num_nodes":"9","size_leaf_vector":"1"}},{"base_weights":[2.341584E-2,1.3031895E-1,-2.1343091E-1,2.9301912E-1,3.192894E-2,3.465085E-2,-5.0294407E-2,5.7362217E-2,3.1465597E-2,2.235165E-1,-2.72585E-1,1.4111833E-1,-4.468945E-2,5.838358E-2,-3.404831E-2,-4.2703282E-2,2.9713428E-2,-1.0052905E-1,2.7738872E-3,-1.6946753E-2,3.913421E-2],"categories":[],"categories_nodes":[],"categories_segments":[],"categories_sizes":[],"default_left":[0,0,0,0,0,0,0,0,0,0,0,0,0,0,0,0,0,0,0,0,0],"id":77,"left_children":[1,3,5,7,9,11,-1,-1,13,15,17,19,-1,-1,-1,-1,-1,-1,-1,-1,-1],"loss_changes":[3.9942758E0,1.7284465E0,3.5437567E0,2.9754188E0,4.073096E0,1.4666151E0,0E0,0E0,4.7532964E0,2.1748428E0,5.9711704E0,1.8677309E0,0E0,0E0,0E0,0E0,0E0,0E0,0E0,0E0,0E0],"parents":[2147483647,0,0,1,1,2,2,3,3,4,4,5,5,8,8,9,9,10,10,11,11],"right_children":[2,4,6,8,10,12,-1,-1,14,16,18,20,-1,-1,-1,-1,-1,-1,-1,-1,-1],"split_conditions":[1E0,2.48E2,1E0,6.8E0,6.7E0,5E1,-5.0294407E-2,5.7362217E-2,4.1E1,5.5E0,6.8E0,4.5E1,-4.468945E-2,5.838358E-2,-3.404831E-2,-4.2703282E-2,2.9713428E-2,-1.0052905E-1,2.7738872E-3,-1.6946753E-2,3.913421E-2],"split_indices":[3,4,2,0,0,1,0,0,1,0,0,1,0,0,0,0,0,0,0,0,0],"split_type":[0,0,0,0,0,0,0,0,0,0,0,0,0,0,0,0,0,0,0,0,0],"sum_hessian":[1.5565544E2,1.075579E2,4.809754E1,3.9787E1,6.77709E1,2.6376242E1,2.1721302E1,1.8618904E1,2.1168095E1,4.1761982E1,2.6008919E1,2.217942E1,4.1968217E0,8.288869E0,1.2879226E1,3.7574337E0,3.8004547E1,6.8789253E0,1.9129993E1,1.0040081E1,1.21393385E1],"tree_param":{"num_deleted":"0","num_feature":"5","num_nodes":"21","size_leaf_vector":"1"}},{"base_weights":[-1.923239E-2,-3.6513162E-1,4.124004E-2,-6.5330334E-2,-2.475412E-1,9.24614E-2,-4.685747E-2,-4.6057723E-2,1.5179323E-4,-5.404442E-2,1.3951467E-1,-4.1217912E-2,4.6323523E-2,6.2838055E-2,6.035796E-3],"categories":[],"categories_nodes":[],"categories_segments":[],"categories_sizes":[],"default_left":[0,0,0,0,0,0,0,0,0,0,0,0,0,0,0],"id":78,"left_children":[1,3,5,-1,7,9,-1,-1,11,-1,13,-1,-1,-1,-1],"loss_changes":[2.8589375E0,5.273049E-1,3.0887842E0,0E0,8.470339E-1,3.2562916E0,0E0,0E0,1.7989503E0,0E0,3.8401105E0,0E0,0E0,0E0,0E0],"parents":[2147483647,0,0,1,1,2,2,4,4,5,5,8,8,10,10],"right_children":[2,4,6,-1,8,10,-1,-1,12,-1,14,-1,-1,-1,-1],"split_conditions":[6.6E0,2.53E2,7.4E0,-6.5330334E-2,1E0,2.45E2,-4.685747E-2,-4.6057723E-2,6.5E0,-5.404442E-2,3.8E1,-4.1217912E-2,4.6323523E-2,6.2838055E-2,6.035796E-3],"split_indices":[0,4,0,0,2,4,0,0,0,0,1,0,0,0,0],"split_type":[0,0,0,0,0,0,0,0,0,0,0,0,0,0,0],"sum_hessian":[1.3495782E2,1.9333456E1,1.1562437E2,4.2825985E0,1.5050857E1,1.0581201E2,9.812353E0,7.629447E0,7.4214096E0,6.596592E0,9.921542E1,3.9839835E0,3.437426E0,1.2859248E1,8.635618E1],"tree_param":{"num_deleted":"0","num_feature":"5","num_nodes":"15","size_leaf_vector":"1"}},{"base_weights":[-9.788129E-3,-1.656889E-1,5.229534E-2,5.146848E-2,-3.326506E-1,-4.8493683E-1,4.845584E-2,-3.327158E-2,-5.226341E-2],"categories":[],"categories_nodes":[],"categories_segments":[],"categories_sizes":[],"default_left":[0,0,0,0,0,0,0,0,0],"id":79,"left_children":[1,3,-1,-1,5,7,-1,-1,-1],"loss_changes":[8.02929E0,8.661502E0,0E0,0E0,7.779257E0,1.22200966E-1,0E0,0E0,0E0],"parents":[2147483647,0,0,1,1,4,4,5,5],"right_children":[2,4,-1,-1,6,8,-1,-1,-1],"split_conditions":[5E1,5.6E0,5.229534E-2,5.146848E-2,7.4E0,6.6E0,4.845584E-2,-3.327158E-2,-5.226341E-2],"split_indices":[1,0,0,0,0,0,0,0,0],"split_type":[0,0,0,0,0,0,0,0,0],"sum_hessian":[9.4631325E1,7.3740875E1,2.0890444E1,1.4119768E1,5.962111E1,5.0598682E1,9.0224285E0,1.1993813E1,3.860487E1],"tree_param":{"num_deleted":"0","num_feature":"5","num_nodes":"9","size_leaf_vector":"1"}},{"base_weights":[2.3400653E-2,1.2437438E-1,-2.0548013E-1,6.0472675E-2,9.041711E-2,3.70296E-2,-4.9991973E-2,2.3895626E-1,-3.2037795E-2,1.371637E-1,-4.365339E-2,-4.1706428E-2,3.0333892E-2,-6.0923558E-2,1.5364177E-2,-1.6749516E-2,3.8069587E-2],"categories":[],"categories_nodes":[],"categories_segments":[],"categories_sizes":[],"default_left":[0,0,0,0,0,0,0,0,0,0,0,0,0,0,0,0,0],"id":80,"left_children":[1,3,5,-1,7,9,-1,11,13,15,-1,-1,-1,-1,-1,-1,-1],"loss_changes":[3.532443E0,1.6729316E0,3.362205E0,0E0,1.8283491E0,1.321681E0,0E0,2.0418966E0,6.0682745E0,1.7498806E0,0E0,0E0,0E0,0E0,0E0,0E0,0E0],"parents":[2147483647,0,0,1,1,2,2,4,4,5,5,7,7,8,8,9,9],"right_children":[2,4,6,-1,8,10,-1,12,14,16,-1,-1,-1,-1,-1,-1,-1],"split_conditions":[1E0,2.45E2,1E0,6.0472675E-2,6.7E0,5E1,-4.9991973E-2,5.5E0,4E1,4.5E1,-4.365339E-2,-4.1706428E-2,3.0333892E-2,-6.0923558E-2,1.5364177E-2,-1.6749516E-2,3.8069587E-2],"split_indices":[3,4,2,0,0,1,0,0,1,1,0,0,0,0,0,0,0],"split_type":[0,0,0,0,0,0,0,0,0,0,0,0,0,0,0,0,0],"sum_hessian":[1.5074136E2,1.0491385E2,4.582751E1,5.817155E0,9.9096695E1,2.56092E1,2.021831E1,4.434922E1,5.4747475E1,2.17257E1,3.8834996E0,3.4739418E0,4.087528E1,1.2769982E1,4.197749E1,9.79028E0,1.193542E1],"tree_param":{"num_deleted":"0","num_feature":"5","num_nodes":"17","size_leaf_vector":"1"}},{"base_weights":[-1.7689887E-2,-3.6477807E-1,4.0203556E-2,-6.587443E-2,-2.4329841E-1,8.765905E-2,-4.6325028E-2,-4.55393E-2,5.4891678E-3,-5.270418E-2,1.3201815E-1,-4.0394526E-2,4.55244E-2,6.164484E-2,5.6043607E-3],"categories":[],"categories_nodes":[],"categories_segments":[],"categories_sizes":[],"default_left":[0,0,0,0,0,0,0,0,0,0,0,0,0,0,0],"id":81,"left_children":[1,3,5,-1,7,9,-1,-1,11,-1,13,-1,-1,-1,-1],"loss_changes":[2.6655862E0,5.167506E-1,2.7634616E0,0E0,7.940207E-1,2.9324152E0,0E0,0E0,1.6370167E0,0E0,3.5989122E0,0E0,0E0,0E0,0E0],"parents":[2147483647,0,0,1,1,2,2,4,4,5,5,8,8,10,10],"right_children":[2,4,6,-1,8,10,-1,-1,12,-1,14,-1,-1,-1,-1],"split_conditions":[6.6E0,2.53E2,7.4E0,-6.587443E-2,1E0,2.45E2,-4.6325028E-2,-4.55393E-2,6.5E0,-5.270418E-2,3.8E1,-4.0394526E-2,4.55244E-2,6.164484E-2,5.6043607E-3],"split_indices":[0,4,0,0,2,4,0,0,0,0,1,0,0,0,0],"split_type":[0,0,0,0,0,0,0,0,0,0,0,0,0,0,0],"sum_hessian":[1.3092514E2,1.7958403E1,1.12966736E2,3.9579544E0,1.4000447E1,1.0399049E2,8.976246E0,7.109262E0,6.891185E0,6.2668686E0,9.7723625E1,3.660606E0,3.2305791E0,1.2284039E1,8.543958E1],"tree_param":{"num_deleted":"0","num_feature":"5","num_nodes":"15","size_leaf_vector":"1"}},{"base_weights":[-1.2310025E-2,-1.6694486E-1,5.1831186E-2,5.0956268E-2,-3.31913E-1,-4.80288E-1,4.77957E-2,-3.2161575E-2,-5.1980328E-2],"categories":[],"categories_nodes":[],"categories_segments":[],"categories_sizes":[],"default_left":[0,0,0,0,0,0,0,0,0],"id":82,"left_children":[1,3,-1,-1,5,7,-1,-1,-1],"loss_changes":[7.469264E0,8.029062E0,0E0,0E0,7.106151E0,1.3919926E-1,0E0,0E0,0E0],"parents":[2147483647,0,0,1,1,4,4,5,5],"right_children":[2,4,-1,-1,6,8,-1,-1,-1],"split_conditions":[5E1,5.6E0,5.1831186E-2,5.0956268E-2,7.4E0,6.6E0,4.77957E-2,-3.2161575E-2,-5.1980328E-2],"split_indices":[1,0,0,0,0,0,0,0,0],"split_type":[0,0,0,0,0,0,0,0,0],"sum_hessian":[8.897561E1,6.9428116E1,1.9547493E1,1.3201608E1,5.6226505E1,4.7864315E1,8.362188E0,1.1365508E1,3.649881E1],"tree_param":{"num_deleted":"0","num_feature":"5","num_nodes":"9","size_leaf_vector":"1"}},{"base_weights":[2.3381375E-2,-4.8740856E-2,6.599412E-2,1.11449674E-1,-4.691754E-2,2.1223415E-1,-1.1179921E-1,5.6659143E-2,1.2343767E-2,2.9334536E-2,-4.4646837E-2],"categories":[],"categories_nodes":[],"categories_segments":[],"categories_sizes":[],"default_left":[0,0,0,0,0,0,0,0,0,0,0],"id":83,"left_children":[1,-1,3,5,-1,7,9,-1,-1,-1,-1],"loss_changes":[3.2357762E0,0E0,3.3784535E0,2.8775022E0,0E0,2.6905427E0,5.5687003E0,0E0,0E0,0E0,0E0],"parents":[2147483647,0,0,2,2,3,3,5,5,6,6],"right_children":[2,-1,4,6,-1,8,10,-1,-1,-1,-1],"split_conditions":[6.5E0,-4.8740856E-2,7.4E0,1E0,-4.691754E-2,2.48E2,6.8E0,5.6659143E-2,1.2343767E-2,2.9334536E-2,-4.4646837E-2],"split_indices":[0,0,0,2,0,4,0,0,0,0,0],"split_type":[0,0,0,0,0,0,0,0,0,0,0],"sum_hessian":[1.4618304E2,1.0452544E1,1.357305E2,1.258343E2,9.896205E0,8.6729904E1,3.9104397E1,1.6300247E1,7.042966E1,1.7745493E1,2.1358904E1],"tree_param":{"num_deleted":"0","num_feature":"5","num_nodes":"11","size_leaf_vector":"1"}},{"base_weights":[-1.4974184E-2,-3.5977608E-1,4.026312E-2,-6.6015035E-2,-2.3598327E-1,8.42573E-2,-4.5784038E-2,-4.5113727E-2,1.7196326E-2,-5.2429255E-2,1.2784187E-1,-3.9554097E-2,4.50353E-2,6.048412E-2,5.4941503E-3],"categories":[],"categories_nodes":[],"categories_segments":[],"categories_sizes":[],"default_left":[0,0,0,0,0,0,0,0,0,0,0,0,0,0,0],"id":84,"left_children":[1,3,5,-1,7,9,-1,-1,11,-1,13,-1,-1,-1,-1],"loss_changes":[2.462546E0,5.0790334E-1,2.486023E0,0E0,7.8104526E-1,2.8113103E0,0E0,0E0,1.5162868E0,0E0,3.3521533E0,0E0,0E0,0E0,0E0],"parents":[2147483647,0,0,1,1,2,2,4,4,5,5,8,8,10,10],"right_children":[2,4,6,-1,8,10,-1,-1,12,-1,14,-1,-1,-1,-1],"split_conditions":[6.6E0,2.53E2,7.4E0,-6.6015035E-2,1E0,2.45E2,-4.5784038E-2,-4.5113727E-2,6.5E0,-5.2429255E-2,3.8E1,-3.9554097E-2,4.50353E-2,6.048412E-2,5.4941503E-3],"split_indices":[0,4,0,0,2,4,0,0,0,0,1,0,0,0,0],"split_type":[0,0,0,0,0,0,0,0,0,0,0,0,0,0,0],"sum_hessian":[1.2753459E2,1.684867E1,1.1068592E2,3.6527736E0,1.3195896E1,1.0246657E2,8.21935E0,6.7109723E0,6.4849234E0,6.111093E0,9.635548E1,3.3652012E0,3.119722E0,1.1806535E1,8.454894E1],"tree_param":{"num_deleted":"0","num_feature":"5","num_nodes":"15","size_leaf_vector":"1"}},{"base_weights":[-1.6791882E-2,-1.7104404E-1,5.1439058E-2,5.023743E-2,-3.3204976E-1,-4.7572932E-1,4.708066E-2,-3.1164018E-2,-5.1708937E-2],"categories":[],"categories_nodes":[],"categories_segments":[],"categories_sizes":[],"default_left":[0,0,0,0,0,0,0,0,0],"id":85,"left_children":[1,3,-1,-1,5,7,-1,-1,-1],"loss_changes":[7.004135E0,7.340584E0,0E0,0E0,6.4530244E0,1.5307903E-1,0E0,0E0,0E0],"parents":[2147483647,0,0,1,1,4,4,5,5],"right_children":[2,4,-1,-1,6,8,-1,-1,-1],"split_conditions":[5E1,5.6E0,5.1439058E-2,5.023743E-2,7.4E0,6.6E0,4.708066E-2,-3.1164018E-2,-5.1708937E-2],"split_indices":[1,0,0,0,0,0,0,0,0],"split_type":[0,0,0,0,0,0,0,0,0],"sum_hessian":[8.340916E1,6.516393E1,1.8245216E1,1.2164556E1,5.2999382E1,4.5299934E1,7.6994457E0,1.08377495E1,3.4462185E1],"tree_param":{"num_deleted":"0","num_feature":"5","num_nodes":"9","size_leaf_vector":"1"}},{"base_weights":[2.3370367E-2,5.8045805E-2,-1.451237E-2,1.05361655E-1,-2.873984E-1,1.5274586E-1,-4.602243E-2,1.4342466E-1,-7.610312E-1,5.6978073E-2,7.528141E-3,5.4032575E-2,-4.6414603E-2,-9.740551E-2,-4.7563087E-2],"categories":[],"categories_nodes":[],"categories_segments":[],"categories_sizes":[],"default_left":[0,0,0,0,0,0,0,0,0,0,0,0,0,0,0],"id":86,"left_children":[1,-1,3,5,7,9,-1,11,13,-1,-1,-1,-1,-1,-1],"loss_changes":[3.0264113E0,0E0,4.4423256E0,2.6013303E0,8.563751E0,2.796499E0,0E0,5.685913E0,7.462549E-1,0E0,0E0,0E0,0E0,0E0,0E0],"parents":[2147483647,0,0,2,2,3,3,4,4,5,5,7,7,8,8],"right_children":[2,-1,4,6,8,10,-1,12,14,-1,-1,-1,-1,-1,-1],"split_conditions":[2.45E2,5.8045805E-2,1E0,5E1,6.8E0,2.48E2,-4.602243E-2,1E0,1E0,5.6978073E-2,7.528141E-3,5.4032575E-2,-4.6414603E-2,-9.740551E-2,-4.7563087E-2],"split_indices":[4,0,2,1,0,4,0,3,3,0,0,0,0,0,0],"split_type":[0,0,0,0,0,0,0,0,0,0,0,0,0,0,0],"sum_hessian":[1.4200543E2,8.129781E0,1.3387566E2,9.3442085E1,4.0433563E1,8.689227E1,6.549812E0,2.1538774E1,1.8894789E1,1.2616289E1,7.4275986E1,1.3095016E1,8.44376E0,9.437594E0,9.457194E0],"tree_param":{"num_deleted":"0","num_feature":"5","num_nodes":"15","size_leaf_vector":"1"}},{"base_weights":[-1.3614809E-2,-3.5982603E-1,3.9738692E-2,-6.6573374E-2,-2.3326382E-1,8.069077E-2,-4.5225378E-2,-4.4707384E-2,2.3404721E-2,-5.105514E-2,1.2127997E-1,-3.869829E-2,4.440682E-2,5.924633E-2,5.207389E-3],"categories":[],"categories_nodes":[],"categories_segments":[],"categories_sizes":[],"default_left":[0,0,0,0,0,0,0,0,0,0,0,0,0,0,0],"id":87,"left_children":[1,3,5,-1,7,9,-1,-1,11,-1,13,-1,-1,-1,-1],"loss_changes":[2.3184302E0,4.9343038E-1,2.2323046E0,0E0,7.453706E-1,2.4967053E0,0E0,0E0,1.3865216E0,0E0,3.0913715E0,0E0,0E0,0E0,0E0],"parents":[2147483647,0,0,1,1,2,2,4,4,5,5,8,8,10,10],"right_children":[2,4,6,-1,8,10,-1,-1,12,-1,14,-1,-1,-1,-1],"split_conditions":[6.6E0,2.53E2,7.4E0,-6.6573374E-2,1E0,2.45E2,-4.5225378E-2,-4.4707384E-2,6.5E0,-5.105514E-2,3.8E1,-3.869829E-2,4.440682E-2,5.924633E-2,5.207389E-3],"split_indices":[0,4,0,0,2,4,0,0,0,0,1,0,0,0,0],"split_type":[0,0,0,0,0,0,0,0,0,0,0,0,0,0,0],"sum_hessian":[1.2373925E2,1.575577E1,1.0798348E2,3.3641963E0,1.2391574E1,1.0045766E2,7.525823E0,6.35549E0,6.0360837E0,5.709646E0,9.474801E1,3.0958874E0,2.9401963E0,1.1165801E1,8.358221E1],"tree_param":{"num_deleted":"0","num_feature":"5","num_nodes":"15","size_leaf_vector":"1"}},{"base_weights":[-1.9410996E-2,-1.706817E-1,5.0953258E-2,4.9773235E-2,-3.3028507E-1,-4.7112513E-1,4.6492632E-2,-3.0239804E-2,-5.1440477E-2],"categories":[],"categories_nodes":[],"categories_segments":[],"categories_sizes":[],"default_left":[0,0,0,0,0,0,0,0,0],"id":88,"left_children":[1,3,-1,-1,5,7,-1,-1,-1],"loss_changes":[6.439203E0,6.8301845E0,0E0,0E0,5.9354553E0,1.647129E-1,0E0,0E0,0E0],"parents":[2147483647,0,0,1,1,4,4,5,5],"right_children":[2,4,-1,-1,6,8,-1,-1,-1],"split_conditions":[5E1,5.6E0,5.0953258E-2,4.9773235E-2,7.4E0,6.6E0,4.6492632E-2,-3.0239804E-2,-5.1440477E-2],"split_indices":[1,0,0,0,0,0,0,0,0],"split_type":[0,0,0,0,0,0,0,0,0],"sum_hessian":[7.838938E1,6.1483303E1,1.6906076E1,1.1442771E1,5.004053E1,4.2857567E1,7.1829653E0,1.0379561E1,3.2478004E1],"tree_param":{"num_deleted":"0","num_feature":"5","num_nodes":"9","size_leaf_vector":"1"}},{"base_weights":[2.3375027E-2,-4.7728684E-2,6.2088914E-2,1.01968415E-1,-4.5924235E-2,1.9593449E-1,-1.0831437E-1,5.5064656E-2,1.1348039E-2,2.8376488E-2,-4.346403E-2],"categories":[],"categories_nodes":[],"categories_segments":[],"categories_sizes":[],"default_left":[0,0,0,0,0,0,0,0,0,0,0],"id":89,"left_children":[1,-1,3,5,-1,7,9,-1,-1,-1,-1],"loss_changes":[2.715682E0,0E0,2.7395804E0,2.4147544E0,0E0,2.3965783E0,4.9923854E0,0E0,0E0,0E0,0E0],"parents":[2147483647,0,0,2,2,3,3,5,5,6,6],"right_children":[2,-1,4,6,-1,8,10,-1,-1,-1,-1],"split_conditions":[6.5E0,-4.7728684E-2,7.4E0,1E0,-4.5924235E-2,2.48E2,6.8E0,5.5064656E-2,1.1348039E-2,2.8376488E-2,-4.346403E-2],"split_indices":[0,0,0,2,0,4,0,0,0,0,0],"split_type":[0,0,0,0,0,0,0,0,0,0,0],"sum_hessian":[1.375806E2,9.061786E0,1.2851881E2,1.20133545E2,8.38527E0,8.3077934E1,3.705562E1,1.4598394E1,6.847954E1,1.6891262E1,2.0164354E1],"tree_param":{"num_deleted":"0","num_feature":"5","num_nodes":"11","size_leaf_vector":"1"}},{"base_weights":[-1.123856E-2,-3.547461E-1,3.9692927E-2,-6.655783E-2,-2.2596581E-1,4.0179625E-1,-1.4647567E-2,-4.4277187E-2,3.4751162E-2,-2.984243E-2,6.1684936E-2,-1.2196196E-1,1.4792007E-1,-3.782716E-2,4.3945953E-2,2.088818E-3,-5.4905143E-2,-3.609954E-2,4.6087526E-2],"categories":[],"categories_nodes":[],"categories_segments":[],"categories_sizes":[],"default_left":[0,0,0,0,0,0,0,0,0,0,0,0,0,0,0,0,0,0,0],"id":90,"left_children":[1,3,5,-1,7,9,11,-1,13,-1,-1,15,17,-1,-1,-1,-1,-1,-1],"loss_changes":[2.1441448E0,4.8292172E-1,2.1099098E0,0E0,7.3329717E-1,2.2904582E0,1.6569177E0,0E0,1.2851038E0,0E0,0E0,3.4972506E0,6.187651E0,0E0,0E0,0E0,0E0,0E0,0E0],"parents":[2147483647,0,0,1,1,2,2,4,4,5,5,6,6,8,8,11,11,12,12],"right_children":[2,4,6,-1,8,10,12,-1,14,-1,-1,16,18,-1,-1,-1,-1,-1,-1],"split_conditions":[6.6E0,2.53E2,3.8E1,-6.655783E-2,1E0,3.6E1,1E0,-4.4277187E-2,6.5E0,-2.984243E-2,6.1684936E-2,4.5E1,6.8E0,-3.782716E-2,4.3945953E-2,2.088818E-3,-5.4905143E-2,-3.609954E-2,4.6087526E-2],"split_indices":[0,4,1,0,2,1,2,0,0,0,0,1,0,0,0,0,0,0,0],"split_type":[0,0,0,0,0,0,0,0,0,0,0,0,0,0,0,0,0,0,0],"sum_hessian":[1.2075029E2,1.4821498E1,1.05928795E2,3.1207457E0,1.1700752E1,1.29879875E1,9.29408E1,6.0071025E0,5.6936493E0,2.9605746E0,1.0027412E1,5.6134796E1,3.680601E1,2.8502085E0,2.8434408E0,4.2777832E1,1.3356963E1,1.3956688E1,2.2849321E1],"tree_param":{"num_deleted":"0","num_feature":"5","num_nodes":"19","size_leaf_vector":"1"}},{"base_weights":[-2.3732215E-2,-1.7466156E-1,5.0583072E-2,